{"learner":{"attributes":{"best_iteration":"74","best_score":"0.9928870049936128"},"feature_names":["trans_hour","trans_day","trans_month","trans_year","category","age","trans_amount","state","zip"],"feature_types":["float","float","float","float","float","float","float","float","float"],"gradient_booster":{"model":{"cats":{"enc":[],"feature_segments":[],"sorted_idx":[]},"gbtree_model_param":{"num_parallel_tree":"1","num_trees":"95"},"iteration_indptr":[0,1,2,3,4,5,6,7,8,9,10,11,12,13,14,15,16,17,18,19,20,21,22,23,24,25,26,27,28,29,30,31,32,33,34,35,36,37,38,39,40,41,42,43,44,45,46,47,48,49,50,51,52,53,54,55,56,57,58,59,60,61,62,63,64,65,66,67,68,69,70,71,72,73,74,75,76,77,78,79,80,81,82,83,84,85,86,87,88,89,90,91,92,93,94,95],"tree_info":[0,0,0,0,0,0,0,0,0,0,0,0,0,0,0,0,0,0,0,0,0,0,0,0,0,0,0,0,0,0,0,0,0,0,0,0,0,0,0,0,0,0,0,0,0,0,0,0,0,0,0,0,0,0,0,0,0,0,0,0,0,0,0,0,0,0,0,0,0,0,0,0,0,0,0,0,0,0,0,0,0,0,0,0,0,0,0,0,0,0,0,0,0,0,0],"trees":[{"base_weights":[-4.935834E-3,-2.4315298E-1,6.554935E-1,-1.0773532E0,9.143519E-2,-1.5276382E0,9.508671E-2,-6.2200956E-2,-1.7013575E0,-1.5934066E0,-2.4E-2,-7.671233E-2,2.3796034E-1,-1.7380586E0,-0E0,-9.407895E-2,-5.263158E-2,-7.857143E-2,2.3824451E-2,-5.6565654E-2,-9.086022E-2,-4.4999998E-2,2.6923079E-2],"categories":[],"categories_nodes":[],"categories_segments":[],"categories_sizes":[],"default_left":[0,0,0,0,0,0,0,0,0,0,0,0,0,0,0,0,0,0,0,0,0,0,0],"id":0,"left_children":[1,3,5,7,-1,9,-1,11,13,15,-1,-1,17,19,-1,-1,21,-1,-1,-1,-1,-1,-1],"loss_changes":[7.979801E1,6.5039716E2,3.7125232E2,1.6883203E2,0E0,8.614807E-1,0E0,4.7551765E1,1.0349701E1,1.903724E1,0E0,0E0,3.903799E1,2.205536E0,0E0,0E0,5.9083E0,0E0,0E0,0E0,0E0,0E0,0E0],"parents":[2147483647,0,0,1,1,2,2,3,3,5,5,7,7,8,8,9,9,12,12,13,13,16,16],"right_children":[2,4,6,8,-1,10,-1,12,14,16,-1,-1,18,20,-1,-1,22,-1,-1,-1,-1,-1,-1],"split_conditions":[5.714286E-1,1.9679487E-1,6.639801E-1,-1.295376E-1,9.143519E-2,8.6977565E-1,9.508671E-2,-1.5421349E-1,1.5019447E-1,8.5714287E-1,-2.4E-2,-7.671233E-2,-7.1428573E-1,-8.542755E-1,-0E0,-9.407895E-2,-1.5154405E-1,-7.857143E-2,2.3824451E-2,-5.6565654E-2,-9.086022E-2,-4.4999998E-2,2.6923079E-2],"split_indices":[4,6,6,6,0,5,0,6,6,4,0,0,4,4,0,0,6,0,0,0,0,0,0],"split_type":[0,0,0,0,0,0,0,0,0,0,0,0,0,0,0,0,0,0,0,0,0,0,0],"sum_hessian":[5.045E2,3.7225E2,1.3225E2,2.6625E2,1.06E2,4.775E1,8.45E1,1.025E2,1.6375E2,4.35E1,4.25E0,1.625E1,8.625E1,1.6025E2,3.5E0,3.6E1,7.5E0,8.5E0,7.775E1,2.275E1,1.375E2,3E0,4.5E0],"tree_param":{"num_deleted":"0","num_feature":"9","num_nodes":"23","size_leaf_vector":"1"}},{"base_weights":[-2.0811434E-3,-5.636491E-1,1.330335E0,-5.332908E-2,-9.779482E-1,6.2044096E-1,8.199941E-2,-6.177077E-1,8.106695E-1,-8.361454E-2,-5.7539994E-1,1.9135427E-1,8.0957454E-1,8.2045007E-1,-7.231319E-2,7.29894E-2,-2.8328848E-1,7.8665036E-1,-1.0473901E0,4.7502732E-1,-8.0775894E-2,5.187984E-2,4.552148E-1,5.0836146E-2,-1.4935632E-3,-2.5872046E-2,1.4783355E-2,6.581598E-2,-6.7521125E-2,-5.6298386E-2,-6.5538497E-4,3.789924E-2,-0E0,9.514125E-3,-1.6623411E-2,-0E0,3.1969745E-2],"categories":[],"categories_nodes":[],"categories_segments":[],"categories_sizes":[],"default_left":[0,0,0,0,0,0,0,0,0,0,0,0,0,0,0,0,0,0,0,0,0,0,0,0,0,0,0,0,0,0,0,0,0,0,0,0,0],"id":1,"left_children":[1,3,5,7,9,11,-1,13,15,-1,17,19,21,23,-1,-1,25,27,29,31,33,-1,35,-1,-1,-1,-1,-1,-1,-1,-1,-1,-1,-1,-1,-1,-1],"loss_changes":[3.781598E2,7.468249E1,2.9750671E1,8.001947E1,5.171277E1,3.1813698E0,0E0,1.2139783E2,4.7303265E1,0E0,8.376056E1,1.7000928E0,9.520092E-1,6.807949E0,0E0,0E0,3.8673544E0,4.1670967E1,7.1897354E0,1.2763712E0,8.9617604E-1,0E0,1.7381778E0,0E0,0E0,0E0,0E0,0E0,0E0,0E0,0E0,0E0,0E0,0E0,0E0,0E0,0E0],"parents":[2147483647,0,0,1,1,2,2,3,3,4,4,5,5,7,7,8,8,10,10,11,11,12,12,13,13,16,16,17,17,18,18,19,19,20,20,22,22],"right_children":[2,4,6,8,10,12,-1,14,16,-1,18,20,22,24,-1,-1,26,28,30,32,34,-1,36,-1,-1,-1,-1,-1,-1,-1,-1,-1,-1,-1,-1,-1,-1],"split_conditions":[3.6842105E-1,-3.6972147E-1,7.4122846E-2,-4.2857143E-1,1.4285715E-1,-2.7905598E-1,8.199941E-2,-6.174165E-1,-6.174165E-1,-8.361454E-2,-6.174165E-1,1.187881E-1,2.7846974E-1,-6.926105E-1,-7.231319E-2,7.29894E-2,4.814815E-1,1.4814815E-1,1.1851852E0,-3.6972147E-1,-4.4444445E-1,5.187984E-2,-4.3242872E-1,5.0836146E-2,-1.4935632E-3,-2.5872046E-2,1.4783355E-2,6.581598E-2,-6.7521125E-2,-5.6298386E-2,-6.5538497E-4,3.789924E-2,-0E0,9.514125E-3,-1.6623411E-2,-0E0,3.1969745E-2],"split_indices":[0,4,4,4,4,7,0,0,0,0,0,1,7,4,0,0,5,5,5,4,5,0,8,0,0,0,0,0,0,0,0,0,0,0,0,0,0],"split_type":[0,0,0,0,0,0,0,0,0,0,0,0,0,0,0,0,0,0,0,0,0,0,0,0,0,0,0,0,0,0,0,0,0,0,0,0,0],"sum_hessian":[5.019056E2,3.5416595E2,1.4773965E2,1.6024533E2,1.9392062E2,4.7185898E1,1.00553764E2,9.76243E1,6.2621033E1,6.839597E1,1.2552465E2,1.647538E1,3.0710518E1,3.5471355E1,6.215294E1,3.9168175E1,2.3452856E1,3.1688004E1,9.383665E1,8.236105E0,8.239276E0,1.5481418E1,1.52291E1,2.8978994E1,6.492361E0,1.746532E1,5.987536E0,2.6197165E1,5.4908385E0,8.6596886E1,7.239757E0,4.24178E0,3.9943252E0,3.2454898E0,4.993786E0,4.244595E0,1.0984506E1],"tree_param":{"num_deleted":"0","num_feature":"9","num_nodes":"37","size_leaf_vector":"1"}},{"base_weights":[-2.2996657E-2,-1.0758551E0,1.7063094E0,-3.859088E-1,-1.6047015E0,3.13127E-2,8.615836E-2,-1.390179E0,2.2681674E-1,-9.406064E-1,-1.6849033E0,-0E0,-1.5555592E0,-7.091478E-2,4.240686E-1,-8.125587E-2,2.4456699E-1,-1.7047312E0,-1.9271648E-2,-8.224083E-2,-2.5127864E-2,7.614016E-2,-1.4096404E-4,-5.1310257E-4,2.9290764E-2,-9.095844E-2,-2.7745321E-2],"categories":[],"categories_nodes":[],"categories_segments":[],"categories_sizes":[],"default_left":[0,0,0,0,0,0,0,0,0,0,0,0,0,0,0,0,0,0,0,0,0,0,0,0,0,0,0],"id":2,"left_children":[1,3,5,7,9,-1,-1,11,13,15,17,-1,19,-1,21,-1,23,25,-1,-1,-1,-1,-1,-1,-1,-1,-1],"loss_changes":[9.04576E2,1.1053876E2,8.8378906E-2,8.560806E1,4.780731E0,0E0,0E0,1.2333527E1,2.8804974E1,2.0906729E1,1.5566406E0,0E0,1.6976547E0,0E0,3.788435E1,0E0,1.1898872E0,1.6364563E1,0E0,0E0,0E0,0E0,0E0,0E0,0E0,0E0,0E0],"parents":[2147483647,0,0,1,1,2,2,3,3,4,4,7,7,8,8,9,9,10,10,12,12,14,14,16,16,17,17],"right_children":[2,4,6,8,10,-1,-1,12,14,16,18,-1,20,-1,22,-1,24,26,-1,-1,-1,-1,-1,-1,-1,-1,-1],"split_conditions":[1.9679487E-1,-1.2879387E-1,2.2580668E-1,-1.513434E-1,-8.542755E-1,3.13127E-2,8.615836E-2,-5.3825533E-1,-7.940671E-1,-2.9589767E-2,1.5019447E-1,-0E0,3.3052522E-1,-7.091478E-2,-6.174165E-1,-8.125587E-2,3.627626E-1,3.6842105E-1,-1.9271648E-2,-8.224083E-2,-2.5127864E-2,7.614016E-2,-1.4096404E-4,-5.1310257E-4,2.9290764E-2,-9.095844E-2,-2.7745321E-2],"split_indices":[6,6,6,6,4,0,0,4,4,6,6,0,0,0,0,0,0,0,0,0,0,0,0,0,0,0,0],"split_type":[0,0,0,0,0,0,0,0,0,0,0,0,0,0,0,0,0,0,0,0,0,0,0,0,0,0,0],"sum_hessian":[4.9298138E2,3.070712E2,1.8591019E2,1.3515259E2,1.719186E2,4.4855323E0,1.8142465E2,5.056076E1,8.459183E1,2.1939867E1,1.4997873E2,5.484962E0,4.5075798E1,7.459876E0,7.713195E1,1.3704269E1,8.235598E0,1.4673132E2,3.2474165E0,4.0079582E1,4.996218E0,2.0473522E1,5.665843E1,4.9865274E0,3.2490697E0,1.3199525E2,1.4736069E1],"tree_param":{"num_deleted":"0","num_feature":"9","num_nodes":"27","size_leaf_vector":"1"}},{"base_weights":[4.9553486E-4,-5.208204E-1,1.2542591E0,9.7351736E-1,-1.1808555E0,6.6587025E-1,7.728997E-2,5.118658E-3,1.0011587E0,-7.8788066E-1,-6.381471E-2,8.165089E-1,1.7396648E-1,3.1616575E-1,1.0593693E0,-5.468226E-1,-5.3934127E-2,9.1288745E-1,2.0623988E-1,-2.8236967E-2,2.4750134E-2,-1.7739438E-2,4.408005E-2,6.012742E-2,3.752269E-2,1.1947046E-2,-3.9215226E-2,5.2057106E-2,1.8665507E-2,1.7491201E-2,-0E0,-1.8917372E-2,7.893315E-3],"categories":[],"categories_nodes":[],"categories_segments":[],"categories_sizes":[],"default_left":[0,0,0,0,0,0,0,0,0,0,0,0,0,0,0,0,0,0,0,0,0,0,0,0,0,0,0,0,0,0,0,0,0],"id":3,"left_children":[1,3,5,7,9,11,-1,-1,13,15,-1,17,19,21,23,25,-1,27,29,31,-1,-1,-1,-1,-1,-1,-1,-1,-1,-1,-1,-1,-1],"loss_changes":[3.3343433E2,3.5712726E2,2.255597E1,1.9172745E0,6.355377E0,3.2042637E0,0E0,0E0,2.902855E0,1.8783417E0,0E0,1.4069576E0,1.2949862E0,5.400745E0,1.5070267E0,7.2136564E0,0E0,8.0690384E-1,2.6966238E-1,9.272806E-1,0E0,0E0,0E0,0E0,0E0,0E0,0E0,0E0,0E0,0E0,0E0,0E0,0E0],"parents":[2147483647,0,0,1,1,2,2,3,3,4,4,5,5,8,8,9,9,11,11,12,12,13,13,14,14,15,15,17,17,18,18,19,19],"right_children":[2,4,6,8,10,12,-1,-1,14,16,-1,18,20,22,24,26,-1,28,30,32,-1,-1,-1,-1,-1,-1,-1,-1,-1,-1,-1,-1,-1],"split_conditions":[3.6842105E-1,-6.174165E-1,7.4122846E-2,-8.9736164E-1,-6.6350174E-1,3.8822123E-1,7.728997E-2,5.118658E-3,-6.559082E-1,3.7910464E-1,-6.381471E-2,5.544343E-1,6.086956E-1,-2.7905598E-1,2.2270079E-1,-5.520449E-1,-5.3934127E-2,2.2270079E-1,-3.2751024E-1,4.2105263E-1,2.4750134E-2,-1.7739438E-2,4.408005E-2,6.012742E-2,3.752269E-2,1.1947046E-2,-3.9215226E-2,5.2057106E-2,1.8665507E-2,1.7491201E-2,-0E0,-1.8917372E-2,7.893315E-3],"split_indices":[0,0,4,8,2,8,0,0,1,1,0,1,7,7,7,8,0,7,8,0,0,0,0,0,0,0,0,0,0,0,0,0,0],"split_type":[0,0,0,0,0,0,0,0,0,0,0,0,0,0,0,0,0,0,0,0,0,0,0,0,0,0,0,0,0,0,0,0,0],"sum_hessian":[5.055851E2,3.57646E2,1.479391E2,1.0904889E2,2.485971E2,5.1759888E1,9.617922E1,4.1993284E0,1.04849556E2,5.3218033E1,1.9537907E2,3.7836685E1,1.3923203E1,9.892451E0,9.495711E1,3.3187595E1,2.0030437E1,3.1112143E1,6.724542E0,8.706242E0,5.216962E0,4.460433E0,5.4320183E0,5.9824776E1,3.513233E1,7.210915E0,2.597668E1,2.2886412E1,8.225731E0,3.2359571E0,3.4885852E0,3.2370884E0,5.4691525E0],"tree_param":{"num_deleted":"0","num_feature":"9","num_nodes":"33","size_leaf_vector":"1"}},{"base_weights":[-7.1067545E-3,-4.9098435E-1,1.1511528E0,-1.2370926E0,1.5329503E0,1.7775585E-1,8.391178E-2,-3.127418E-2,-1.5230411E0,8.145893E-2,1.0112876E0,-6.125967E-1,7.2985584E-1,1.0583627E0,-7.214204E-2,-1.2668568E0,-8.2941204E-2,7.9478666E-2,7.031423E-2,-9.2629224E-1,3.1517576E-2,1.049382E0,-5.84019E-2,8.092191E-2,-3.2256886E-2,-1.37645705E-2,-7.305155E-2,2.0068554E-2,-9.624655E-3,-7.825575E-3,-7.234848E-2,-2.0348309E-3,6.1464716E-2],"categories":[],"categories_nodes":[],"categories_segments":[],"categories_sizes":[],"default_left":[0,0,0,0,0,0,0,0,0,0,0,0,0,0,0,0,0,0,0,0,0,0,0,0,0,0,0,0,0,0,0,0,0],"id":4,"left_children":[1,3,5,7,9,11,-1,13,15,-1,17,19,21,23,-1,25,-1,27,-1,29,-1,31,-1,-1,-1,-1,-1,-1,-1,-1,-1,-1,-1],"loss_changes":[2.7925546E2,5.3540814E2,7.373784E1,8.828705E1,1.8173218E-1,2.4559551E1,0E0,8.313987E1,1.5917664E0,0E0,6.75004E0,1.0269643E1,2.2486532E1,3.1453434E1,0E0,1.4118286E1,0E0,1.0239419E0,0E0,6.5480423E0,0E0,6.507313E0,0E0,0E0,0E0,0E0,0E0,0E0,0E0,0E0,0E0,0E0,0E0],"parents":[2147483647,0,0,1,1,2,2,3,3,4,4,5,5,7,7,8,8,10,10,11,11,12,12,13,13,15,15,17,17,19,19,21,21],"right_children":[2,4,6,8,10,12,-1,14,16,-1,18,20,22,24,-1,26,-1,28,-1,30,-1,32,-1,-1,-1,-1,-1,-1,-1,-1,-1,-1,-1],"split_conditions":[3.6842105E-1,2.1284212E-1,8.3553E-2,-6.174165E-1,-1.3899341E-1,0E0,8.391178E-2,-1.3263468E-1,-1.2686935E-1,8.145893E-2,8.907303E-1,-1.1430424E-2,-8.564535E-2,-5.3825533E-1,-7.214204E-2,-5.3825533E-1,-8.2941204E-2,-3.6972147E-1,7.031423E-2,-1.2686935E-1,3.1517576E-2,-1.513434E-1,-5.84019E-2,8.092191E-2,-3.2256886E-2,-1.37645705E-2,-7.305155E-2,2.0068554E-2,-9.624655E-3,-7.825575E-3,-7.234848E-2,-2.0348309E-3,6.1464716E-2],"split_indices":[0,6,6,0,0,4,0,6,6,0,6,6,6,4,0,4,0,4,0,6,0,6,0,0,0,0,0,0,0,0,0,0,0],"split_type":[0,0,0,0,0,0,0,0,0,0,0,0,0,0,0,0,0,0,0,0,0,0,0,0,0,0,0,0,0,0,0,0,0],"sum_hessian":[4.948369E2,3.501438E2,1.4469312E2,2.5658154E2,9.356226E1,5.2099945E1,9.259317E1,4.994317E1,2.0663837E2,7.459714E1,1.8965128E1,2.0964157E1,3.113579E1,2.82682E1,2.167497E1,8.001494E1,1.2662343E2,6.738077E0,1.2227051E1,1.7467499E1,3.4966578E0,2.7639982E1,3.4958081E0,2.1569859E1,6.6983395E0,1.4316612E1,6.5698326E1,3.4919903E0,3.2460866E0,8.484823E0,8.982676E0,3.7411337E0,2.3898848E1],"tree_param":{"num_deleted":"0","num_feature":"9","num_nodes":"33","size_leaf_vector":"1"}},{"base_weights":[1.5662583E-2,-9.223153E-1,7.799866E-2,-1.1969379E0,3.4399244E-1,-4.168376E-2,-1.4664706E0,-2.2643407E-1,4.672657E-1,9.996484E-1,-6.894717E-2,-1.1834127E0,-8.077754E-2,2.2303222E-2,-4.6550717E-2,8.714841E-1,-2.1808787E-1,-4.696667E-2,6.8487294E-2,-6.7064434E-2,-1.7637111E-2,-2.5977334E-2,5.985424E-2,-3.751537E-2,4.7840152E-2],"categories":[],"categories_nodes":[],"categories_segments":[],"categories_sizes":[],"default_left":[0,0,0,0,0,0,0,0,0,0,0,0,0,0,0,0,0,0,0,0,0,0,0,0,0],"id":5,"left_children":[1,3,-1,5,7,9,11,13,15,17,-1,19,-1,-1,-1,21,23,-1,-1,-1,-1,-1,-1,-1,-1],"loss_changes":[7.250785E2,1.0943637E2,0E0,7.896918E1,4.3171444E0,7.3852196E1,3.5332642E0,6.1417694E0,1.3997511E1,2.4012583E1,0E0,8.727058E0,0E0,0E0,0E0,1.5639578E1,1.3175116E1,0E0,0E0,0E0,0E0,0E0,0E0,0E0,0E0],"parents":[2147483647,0,0,1,1,3,3,4,4,5,5,6,6,7,7,8,8,9,9,11,11,15,15,16,16],"right_children":[2,4,-1,6,8,10,12,14,16,18,-1,20,-1,-1,-1,22,24,-1,-1,-1,-1,-1,-1,-1,-1],"split_conditions":[1.9679487E-1,3.6842105E-1,7.799866E-2,-6.174165E-1,-6.4304644E-1,-1.3263468E-1,-1.2686935E-1,-1.3014261E-1,-1.24596655E-1,-1.5421349E-1,-6.894717E-2,-1.355013E-1,-8.077754E-2,2.2303222E-2,-4.6550717E-2,-1.5154405E-1,7.922789E-5,-4.696667E-2,6.8487294E-2,-6.7064434E-2,-1.7637111E-2,-2.5977334E-2,5.985424E-2,-3.751537E-2,4.7840152E-2],"split_indices":[6,0,0,0,1,6,6,6,6,6,0,6,0,0,0,6,6,0,0,0,0,0,0,0,0],"split_type":[0,0,0,0,0,0,0,0,0,0,0,0,0,0,0,0,0,0,0,0,0,0,0,0,0],"sum_hessian":[4.9635526E2,3.0909808E2,1.8725716E2,2.5442555E2,5.4672543E1,4.8918514E1,2.0550705E2,8.697335E0,4.597521E1,2.7575972E1,2.1342543E1,7.8220375E1,1.2728667E2,4.4623466E0,4.2349887E0,2.9036182E1,1.6939024E1,3.7102776E0,2.3865694E1,6.4189316E1,1.4031057E1,4.990185E0,2.4045998E1,1.2448329E1,4.490695E0],"tree_param":{"num_deleted":"0","num_feature":"9","num_nodes":"25","size_leaf_vector":"1"}},{"base_weights":[1.11134E-2,-4.153839E-1,1.0742903E0,8.764571E-1,-1.0007832E0,4.5090044E-1,6.372983E-2,1.0462316E0,4.064974E-1,-1.2043102E0,-7.2954047E-1,8.211798E-1,-0E0,7.3257625E-1,6.2072963E-2,9.6822894E-1,-6.7376204E-2,-3.5115916E-1,-6.2098898E-2,-8.8436717E-1,-2.321763E-1,1.3616434E-1,6.6353396E-2,2.9884338E-2,-4.530784E-1,4.900823E-2,-6.35766E-3,5.328334E-2,6.8887635E-3,-0E0,-3.1579748E-2,-2.1583142E-2,-5.8294244E-2,2.146697E-2,-2.269891E-2,-0E0,1.7869588E-2,-0E0,-3.3470936E-2],"categories":[],"categories_nodes":[],"categories_segments":[],"categories_sizes":[],"default_left":[0,0,0,0,0,0,0,0,0,0,0,0,0,0,0,0,0,0,0,0,0,0,0,0,0,0,0,0,0,0,0,0,0,0,0,0,0,0,0],"id":6,"left_children":[1,3,5,7,9,11,-1,13,15,17,19,21,23,25,-1,27,-1,29,-1,31,33,35,-1,-1,37,-1,-1,-1,-1,-1,-1,-1,-1,-1,-1,-1,-1,-1,-1],"loss_changes":[2.2177281E2,2.6517343E2,1.5488037E1,7.1514816E0,1.0571915E1,6.128041E0,0E0,1.9894333E0,3.501742E1,2.620514E0,7.4534607E0,6.003828E0,5.800865E0,8.318537E0,0E0,1.2439957E0,0E0,1.0299059E0,0E0,8.6362915E0,4.722253E0,4.8332518E-1,0E0,0E0,1.4504738E0,0E0,0E0,0E0,0E0,0E0,0E0,0E0,0E0,0E0,0E0,0E0,0E0,0E0,0E0],"parents":[2147483647,0,0,1,1,2,2,3,3,4,4,5,5,7,7,8,8,9,9,10,10,11,11,12,12,13,13,15,15,17,17,19,19,20,20,21,21,24,24],"right_children":[2,4,6,8,10,12,-1,14,16,18,20,22,24,26,-1,28,-1,30,-1,32,34,36,-1,-1,38,-1,-1,-1,-1,-1,-1,-1,-1,-1,-1,-1,-1,-1,-1],"split_conditions":[3.6842105E-1,-6.174165E-1,0E0,-3.6972147E-1,3.7037037E-2,-3.6972147E-1,6.372983E-2,-4.2857143E-1,1.4814815E-1,-9.7267354E-1,5.714286E-1,-8.542755E-1,-2.1511717E-1,-6.926105E-1,6.2072963E-2,7.242347E-1,-6.7376204E-2,-3.2454434E-1,-6.2098898E-2,-3.6972147E-1,-6.6350174E-1,2.204431E-1,6.6353396E-2,2.9884338E-2,-4.4444445E-1,4.900823E-2,-6.35766E-3,5.328334E-2,6.8887635E-3,-0E0,-3.1579748E-2,-2.1583142E-2,-5.8294244E-2,2.146697E-2,-2.269891E-2,-0E0,1.7869588E-2,-0E0,-3.3470936E-2],"split_indices":[0,0,4,4,5,4,0,4,5,5,4,4,8,4,0,8,0,2,0,4,2,8,0,0,5,0,0,0,0,0,0,0,0,0,0,0,0,0,0],"split_type":[0,0,0,0,0,0,0,0,0,0,0,0,0,0,0,0,0,0,0,0,0,0,0,0,0,0,0,0,0,0,0,0,0,0,0,0,0,0,0],"sum_hessian":[4.8439264E2,3.4624393E2,1.3814871E2,1.0739639E2,2.3884752E2,3.5783188E1,1.02365524E2,7.631205E1,3.1084341E1,1.3147328E2,1.0737425E2,1.8479078E1,1.730411E1,3.39053E1,4.2406754E1,2.4438784E1,6.6455574E0,6.9935284E0,1.2447975E2,7.993074E1,2.7443512E1,9.347901E0,9.131176E0,7.394945E0,9.909164E0,2.655833E1,7.346969E0,2.0826626E1,3.6121566E0,3.63164E0,3.3618886E0,3.327097E1,4.6659767E1,5.8551397E0,2.1588373E1,5.916682E0,3.4312198E0,3.2169056E0,6.6922584E0],"tree_param":{"num_deleted":"0","num_feature":"9","num_nodes":"39","size_leaf_vector":"1"}},{"base_weights":[1.906556E-3,-4.395506E-1,1.0929201E0,-1.1203015E0,7.149588E-2,2.721499E-1,7.630234E-2,-1.4696489E-2,-1.3880855E0,6.5640235E-1,-7.918579E-1,9.918103E-1,-7.1150206E-2,-1.1221166E0,-7.662371E-2,-1.2853505E-2,8.191723E-1,-6.26108E-2,5.8232406E-3,7.466717E-2,-2.5063137E-2,-8.278918E-3,-6.4967476E-2,-8.9043065E-4,5.5219468E-2],"categories":[],"categories_nodes":[],"categories_segments":[],"categories_sizes":[],"default_left":[0,0,0,0,0,0,0,0,0,0,0,0,0,0,0,0,0,0,0,0,0,0,0,0,0],"id":7,"left_children":[1,3,5,7,-1,9,-1,11,13,15,17,19,-1,21,-1,-1,23,-1,-1,-1,-1,-1,-1,-1,-1],"loss_changes":[2.3465111E2,4.434433E2,4.8209152E1,7.47514E1,0E0,2.1968884E1,0E0,7.6893936E1,3.1017456E0,6.5261726E0,6.791977E0,2.5474958E1,0E0,1.2531769E1,0E0,0E0,8.743986E0,0E0,0E0,0E0,0E0,0E0,0E0,0E0,0E0],"parents":[2147483647,0,0,1,1,2,2,3,3,5,5,7,7,8,8,9,9,10,10,11,11,13,13,16,16],"right_children":[2,4,6,8,-1,10,-1,12,14,16,18,20,-1,22,-1,-1,24,-1,-1,-1,-1,-1,-1,-1,-1],"split_conditions":[3.6842105E-1,2.1284212E-1,1.5019447E-1,-6.174165E-1,7.149588E-2,-8.564535E-2,7.630234E-2,-1.3263468E-1,-1.2686935E-1,-1.5154405E-1,7.922789E-5,-5.3825533E-1,-7.1150206E-2,-5.3825533E-1,-7.662371E-2,-1.2853505E-2,-1.9832453E-2,-6.26108E-2,5.8232406E-3,7.466717E-2,-2.5063137E-2,-8.278918E-3,-6.4967476E-2,-8.9043065E-4,5.5219468E-2],"split_indices":[0,6,6,0,0,6,0,6,6,6,6,4,0,4,0,0,4,0,0,0,0,0,0,0,0],"split_type":[0,0,0,0,0,0,0,0,0,0,0,0,0,0,0,0,0,0,0,0,0,0,0,0,0],"sum_hessian":[4.8252313E2,3.4404715E2,1.3847597E2,2.5299142E2,9.105573E1,4.935668E1,8.911928E1,5.0103806E1,2.0288762E2,3.71695E1,1.2187185E1,2.9358183E1,2.0745623E1,7.877929E1,1.2410832E2,4.9816637E0,3.2187836E1,7.950803E0,4.236383E0,2.2226631E1,7.131553E0,1.3360645E1,6.541865E1,8.211863E0,2.3975971E1],"tree_param":{"num_deleted":"0","num_feature":"9","num_nodes":"25","size_leaf_vector":"1"}},{"base_weights":[7.461876E-3,-8.540311E-1,1.4289045E0,-2.288163E-1,-1.3772509E0,1.1751357E-2,7.3075466E-2,3.657277E-1,-8.4695184E-1,-7.4210905E-2,-5.361989E-1,7.26303E-2,-3.1186733E-1,-1.2569312E0,6.8831074E-1,-5.888967E-3,-8.021688E-1,-6.2394764E-2,3.6235508E-2,-6.499755E-2,-1.840992E-2,-0E0,4.7821335E-2,-4.2165425E-2,4.4660535E-2,-6.263425E-2,-0E0],"categories":[],"categories_nodes":[],"categories_segments":[],"categories_sizes":[],"default_left":[0,0,0,0,0,0,0,0,0,0,0,0,0,0,0,0,0,0,0,0,0,0,0,0,0,0,0],"id":8,"left_children":[1,3,5,7,9,-1,-1,11,13,-1,15,-1,17,19,21,23,25,-1,-1,-1,-1,-1,-1,-1,-1,-1,-1],"loss_changes":[5.8522974E2,9.579149E1,5.489807E0,5.166489E1,1.1879669E1,0E0,0E0,5.4096478E1,4.531365E1,0E0,2.6643152E0,0E0,4.609574E1,3.2131195E-1,2.7962284E0,8.959067E0,5.4313917E0,0E0,0E0,0E0,0E0,0E0,0E0,0E0,0E0,0E0,0E0],"parents":[2147483647,0,0,1,1,2,2,3,3,4,4,7,7,8,8,10,10,12,12,13,13,14,14,15,15,16,16],"right_children":[2,4,6,8,10,-1,-1,12,14,-1,16,-1,18,20,22,24,26,-1,-1,-1,-1,-1,-1,-1,-1,-1,-1],"split_conditions":[1.5019447E-1,-1.2879387E-1,2.1284212E-1,3.5231687E-2,3.6842105E-1,1.1751357E-2,7.3075466E-2,-2.8263363E-1,3.627626E-1,-7.4210905E-2,-8.564535E-2,7.26303E-2,-1.3833524E-1,-1.3470902E-1,-1.5010804E-1,-9.338087E-2,-1.1430424E-2,-6.2394764E-2,3.6235508E-2,-6.499755E-2,-1.840992E-2,-0E0,4.7821335E-2,-4.2165425E-2,4.4660535E-2,-6.263425E-2,-0E0],"split_indices":[6,6,6,4,0,0,0,0,0,0,6,0,6,6,6,6,6,0,0,0,0,0,0,0,0,0,0],"split_type":[0,0,0,0,0,0,0,0,0,0,0,0,0,0,0,0,0,0,0,0,0,0,0,0,0,0,0],"sum_hessian":[4.7368127E2,2.9521008E2,1.7847119E2,1.3624097E2,1.589691E2,5.5885615E0,1.7288263E2,6.944968E1,6.679129E1,1.39148E2,1.9821117E1,2.607505E1,4.3374626E1,5.325756E1,1.3533733E1,7.931304E0,1.1889812E1,2.2831999E1,2.0542625E1,4.937932E1,3.878243E0,4.4316297E0,9.102103E0,4.458698E0,3.472606E0,7.156867E0,4.732946E0],"tree_param":{"num_deleted":"0","num_feature":"9","num_nodes":"27","size_leaf_vector":"1"}},{"base_weights":[-2.2188734E-2,-8.4036607E-1,7.00895E-2,-1.0873971E0,2.1877806E-1,-5.929621E-1,-1.429098E0,6.850451E-1,-3.9898184E-1,7.185127E-1,-1.1903236E0,-8.631352E-1,-7.411585E-2,-7.8303516E-2,9.6480304E-1,-5.981189E-1,4.7719106E-2,6.865483E-2,-6.1769534E-2,-6.6247575E-2,-4.242291E-3,8.80755E-3,-6.0562856E-2,-5.578654E-2,3.442406E-2,-3.1557593E-3,6.3766204E-2,-6.302501E-2,3.269097E-2,-0E0,8.16733E-3],"categories":[],"categories_nodes":[],"categories_segments":[],"categories_sizes":[],"default_left":[0,0,0,0,0,0,0,0,0,0,0,0,0,0,0,0,0,0,0,0,0,0,0,0,0,0,0,0,0,0,0],"id":9,"left_children":[1,3,-1,5,7,9,11,13,15,17,19,21,-1,23,25,27,29,-1,-1,-1,-1,-1,-1,-1,-1,-1,-1,-1,-1,-1,-1],"loss_changes":[5.427318E2,7.840633E1,0E0,3.7992737E1,1.7194359E1,8.2216995E1,4.9813843E-1,7.823332E0,2.596064E0,4.573217E1,9.698257E0,7.3356876E0,0E0,1.0062166E1,8.875086E0,1.7312706E1,1.2533447E-1,0E0,0E0,0E0,0E0,0E0,0E0,0E0,0E0,0E0,0E0,0E0,0E0,0E0,0E0],"parents":[2147483647,0,0,1,1,3,3,4,4,5,5,6,6,7,7,8,8,9,9,10,10,11,11,13,13,14,14,15,15,16,16],"right_children":[2,4,-1,6,8,10,12,14,16,18,20,22,-1,24,26,28,30,-1,-1,-1,-1,-1,-1,-1,-1,-1,-1,-1,-1,-1,-1],"split_conditions":[1.9679487E-1,3.6842105E-1,7.00895E-2,-1.3014261E-1,-1.295376E-1,-5.3825533E-1,-8.542755E-1,-8.7231435E-2,1.9423868E-1,-1.9981381E-1,-1.355013E-1,-9.147615E-2,-7.411585E-2,-1.3833524E-1,-1.5010804E-1,7.922789E-5,1.9438492E-1,6.865483E-2,-6.1769534E-2,-6.6247575E-2,-4.242291E-3,8.80755E-3,-6.0562856E-2,-5.578654E-2,3.442406E-2,-3.1557593E-3,6.3766204E-2,-6.302501E-2,3.269097E-2,-0E0,8.16733E-3],"split_indices":[6,0,0,6,6,4,4,4,4,0,6,0,0,6,6,6,8,0,0,0,0,0,0,0,0,0,0,0,0,0,0],"split_type":[0,0,0,0,0,0,0,0,0,0,0,0,0,0,0,0,0,0,0,0,0,0,0,0,0,0,0,0,0,0,0],"sum_hessian":[4.620561E2,2.9419238E2,1.678637E2,2.3889264E2,5.5299755E1,1.0046111E2,1.3843152E2,3.1851053E1,2.3448702E1,3.1049965E1,6.941115E1,1.5665662E1,1.2276586E2,8.449273E0,2.340178E1,1.6523838E1,6.9248657E0,2.389517E1,7.154796E0,6.111861E1,8.292538E0,3.8182726E0,1.1847389E1,3.4812324E0,4.968041E0,5.425391E0,1.7976389E1,1.1058603E1,5.4652343E0,3.4658754E0,3.45899E0],"tree_param":{"num_deleted":"0","num_feature":"9","num_nodes":"31","size_leaf_vector":"1"}},{"base_weights":[-1.7851038E-2,-4.326612E-1,9.6215796E-1,-4.764042E-1,1.225884E-1,1.012173E0,5.846299E-1,7.222045E-1,-9.832645E-1,3.758126E-2,-3.032149E-1,6.527979E-1,5.440529E-2,-1.5819528E-3,7.6800734E-1,8.5992795E-1,2.0857224E-1,-6.610708E-1,-5.2848835E-2,6.025713E-3,-3.0779792E-2,7.951807E-1,1.7225882E-1,9.0572864E-1,-0E0,4.5028042E-2,-0E0,-1.3367513E-2,2.635668E-2,-8.821192E-3,-4.120796E-2,-1.0542842E-2,1.4373233E-2,7.433664E-3,4.7984738E-2,-2.9872614E-3,1.9957712E-2,5.1367432E-2,9.713393E-3],"categories":[],"categories_nodes":[],"categories_segments":[],"categories_sizes":[],"default_left":[0,0,0,0,0,0,0,0,0,0,0,0,0,0,0,0,0,0,0,0,0,0,0,0,0,0,0,0,0,0,0,0,0,0,0,0,0,0,0],"id":10,"left_children":[1,3,5,7,9,11,13,15,17,-1,19,21,-1,-1,23,25,27,29,-1,31,-1,33,35,37,-1,-1,-1,-1,-1,-1,-1,-1,-1,-1,-1,-1,-1,-1,-1],"loss_changes":[1.857094E2,8.107941E0,5.805054E-1,1.8349135E2,7.1755447E0,8.723297E-1,2.8780665E0,5.463909E0,2.769226E0,0E0,1.8010917E0,1.0465231E0,0E0,0E0,1.4391756E0,2.0056915E0,3.8091788E0,2.8449192E0,0E0,7.0409805E-1,0E0,1.179821E0,7.113278E-1,2.2991467E-1,0E0,0E0,0E0,0E0,0E0,0E0,0E0,0E0,0E0,0E0,0E0,0E0,0E0,0E0,0E0],"parents":[2147483647,0,0,1,1,2,2,3,3,4,4,5,5,6,6,7,7,8,8,10,10,11,11,14,14,15,15,16,16,17,17,19,19,21,21,22,22,23,23],"right_children":[2,4,6,8,10,12,14,16,18,-1,20,22,-1,-1,24,26,28,30,-1,32,-1,34,36,38,-1,-1,-1,-1,-1,-1,-1,-1,-1,-1,-1,-1,-1,-1,-1],"split_conditions":[3.6842105E-1,1.1851852E0,5.544343E-1,-6.174165E-1,-6.174165E-1,-5.6426364E-1,6.1618394E-1,4.2285398E-1,-6.6350174E-1,3.758126E-2,0E0,1.260915E-2,5.440529E-2,-1.5819528E-3,5.8667487E-1,7.07868E-1,3.5041403E-2,-1.9981381E-1,-5.2848835E-2,-6.0720146E-1,-3.0779792E-2,-2.7905598E-1,1.681983E0,-3.2454434E-1,-0E0,4.5028042E-2,-0E0,-1.3367513E-2,2.635668E-2,-8.821192E-3,-4.120796E-2,-1.0542842E-2,1.4373233E-2,7.433664E-3,4.7984738E-2,-2.9872614E-3,1.9957712E-2,5.1367432E-2,9.713393E-3],"split_indices":[0,5,1,0,0,5,1,1,2,0,8,2,0,0,8,7,8,0,0,8,0,7,2,2,0,0,0,0,0,0,0,0,0,0,0,0,0,0,0],"split_type":[0,0,0,0,0,0,0,0,0,0,0,0,0,0,0,0,0,0,0,0,0,0,0,0,0,0,0,0,0,0,0,0,0,0,0,0,0,0,0],"sum_hessian":[4.5343298E2,3.1972827E2,1.3370473E2,2.9747726E2,2.2250998E1,1.1392534E2,1.9779385E1,8.786364E1,2.0961362E2,8.838217E0,1.3412782E1,2.436925E1,8.955609E1,4.290108E0,1.5489277E1,6.745472E1,2.0408928E1,4.400201E1,1.6561162E2,6.9215865E0,6.4911957E0,1.6986229E1,7.383021E0,1.232931E1,3.1599667E0,6.3801643E1,3.653071E0,7.6828713E0,1.2726056E1,1.289916E1,3.1102848E1,3.1890419E0,3.7325447E0,4.8344564E0,1.21517725E1,3.2893343E0,4.0936866E0,9.170834E0,3.1584764E0],"tree_param":{"num_deleted":"0","num_feature":"9","num_nodes":"39","size_leaf_vector":"1"}},{"base_weights":[-0E0,-8.0579364E-1,1.318423E0,-2.5373545E-1,-1.2992833E0,1.0662882E-2,6.746567E-2,-1.1871916E0,1.294966E-1,-6.993884E-2,-5.777247E-1,-6.749626E-2,-4.865039E-1,-3.2117423E-2,5.0962365E-1,-5.942538E-2,9.990158E-2,-0E0,-3.4492217E-2,5.6527104E-2,-2.9298453E-2,-4.822062E-3,5.7266753E-2,2.4091996E-2,-1.3346105E-2],"categories":[],"categories_nodes":[],"categories_segments":[],"categories_sizes":[],"default_left":[0,0,0,0,0,0,0,0,0,0,0,0,0,0,0,0,0,0,0,0,0,0,0,0,0],"id":11,"left_children":[1,3,5,7,9,-1,-1,11,13,-1,15,-1,17,19,21,-1,23,-1,-1,-1,-1,-1,-1,-1,-1],"loss_changes":[4.8079102E2,7.519232E1,4.4990234E0,4.9387943E1,7.9882507E0,0E0,0E0,2.3383446E0,6.270023E0,0E0,9.844183E0,0E0,1.2347145E0,4.5788296E1,1.2369507E1,0E0,2.0230844E0,0E0,0E0,0E0,0E0,0E0,0E0,0E0,0E0],"parents":[2147483647,0,0,1,1,2,2,3,3,4,4,7,7,8,8,10,10,12,12,13,13,14,14,16,16],"right_children":[2,4,6,8,10,-1,-1,12,14,-1,16,-1,18,20,22,-1,24,-1,-1,-1,-1,-1,-1,-1,-1],"split_conditions":[1.5019447E-1,-1.2686935E-1,2.1284212E-1,-1.5277298E-1,3.6842105E-1,1.0662882E-2,6.746567E-2,-1.5444396E-1,-1.3597666E-1,-6.993884E-2,-3.7037037E-2,-6.749626E-2,-5.0440294E-1,-5.0440294E-1,3.3052522E-1,-5.942538E-2,3.7037036E-1,-0E0,-3.4492217E-2,5.6527104E-2,-2.9298453E-2,-4.822062E-3,5.7266753E-2,2.4091996E-2,-1.3346105E-2],"split_indices":[6,6,6,6,0,0,0,6,6,0,5,0,0,0,0,0,5,0,0,0,0,0,0,0,0],"split_type":[0,0,0,0,0,0,0,0,0,0,0,0,0,0,0,0,0,0,0,0,0,0,0,0,0],"sum_hessian":[4.4880164E2,2.7927148E2,1.6953017E2,1.3372131E2,1.4555017E2,5.4796095E0,1.6405057E2,3.8079155E1,9.564215E1,1.2565407E2,1.9896097E1,2.881921E1,9.259942E0,6.7471695E1,2.8170458E1,1.0059192E1,9.836905E0,3.0651379E0,6.194804E0,2.080728E1,4.6664417E1,1.4887402E1,1.3283057E1,5.1797194E0,4.6571856E0],"tree_param":{"num_deleted":"0","num_feature":"9","num_nodes":"25","size_leaf_vector":"1"}},{"base_weights":[2.3453606E-2,-7.438829E-1,1.3162761E0,-2.4139698E-1,-1.1987903E0,1.5331008E-2,6.6571735E-2,-1.2121911E0,8.724674E-2,-6.636676E-2,-4.4280967E-1,-6.5651946E-2,-9.872313E-3,9.1783303E-1,-2.8137916E-1,-7.850809E-1,2.11395E-2,6.926699E-2,-2.4194447E-2,-4.8848208E-2,3.777004E-2,-5.7929914E-2,-0E0],"categories":[],"categories_nodes":[],"categories_segments":[],"categories_sizes":[],"default_left":[0,0,0,0,0,0,0,0,0,0,0,0,0,0,0,0,0,0,0,0,0,0,0],"id":12,"left_children":[1,3,5,7,9,-1,-1,11,13,-1,15,-1,-1,17,19,21,-1,-1,-1,-1,-1,-1,-1],"loss_changes":[4.437566E2,6.277925E1,9.163513E-1,4.4235565E1,1.2137192E1,0E0,0E0,2.3050728E0,3.2448013E1,0E0,8.192173E0,0E0,0E0,2.3170977E1,5.396323E1,6.0954E0,0E0,0E0,0E0,0E0,0E0,0E0,0E0],"parents":[2147483647,0,0,1,1,2,2,3,3,4,4,7,7,8,8,10,10,13,13,14,14,15,15],"right_children":[2,4,6,8,10,-1,-1,12,14,-1,16,-1,-1,18,20,22,-1,-1,-1,-1,-1,-1,-1],"split_conditions":[1.9679487E-1,-1.2686935E-1,2.2580668E-1,-1.5339912E-1,3.6842105E-1,1.5331008E-2,6.6571735E-2,3.627626E-1,-2.8263363E-1,-6.636676E-2,7.922789E-5,-6.5651946E-2,-9.872313E-3,-5.3825533E-1,3.454773E-1,1.9423868E-1,2.11395E-2,6.926699E-2,-2.4194447E-2,-4.8848208E-2,3.777004E-2,-5.7929914E-2,-0E0],"split_indices":[6,6,6,6,0,0,0,0,0,0,6,0,0,4,0,4,0,0,0,0,0,0,0],"split_type":[0,0,0,0,0,0,0,0,0,0,0,0,0,0,0,0,0,0,0,0,0,0,0],"sum_hessian":[4.430593E2,2.7832556E2,1.6473373E2,1.342238E2,1.4410175E2,3.5525405E0,1.611812E2,3.297173E1,1.0125207E2,1.2130281E2,2.279894E1,2.9008175E1,3.9635527E0,3.0624874E1,7.06272E1,1.6885738E1,5.9132023E0,2.3250404E1,7.3744683E0,4.2626408E1,2.8000788E1,1.1212399E1,5.6733403E0],"tree_param":{"num_deleted":"0","num_feature":"9","num_nodes":"23","size_leaf_vector":"1"}},{"base_weights":[1.3090576E-2,-1.02645546E-1,3.563319E-1,8.0357105E-1,-4.1313067E-1,-3.3059806E-1,5.633086E-2,8.7619627E-1,3.5004523E-1,-9.414353E-1,7.550909E-1,2.3308255E-1,-5.142944E-1,4.841809E-2,4.511128E-1,3.4459125E-2,-1.1159417E-2,-7.4889606E-1,-5.3323355E-2,4.7751942E-1,9.578985E-1,4.3954127E-2,-5.1043298E-2,-8.101905E-1,7.556209E-2,-0E0,3.200346E-2,-5.1974624E-2,1.367791E-3,3.511905E-2,7.017337E-3,5.281427E-2,2.114292E-2,-1.9433547E-2,-4.854144E-2,-5.600903E-2,5.253094E-2],"categories":[],"categories_nodes":[],"categories_segments":[],"categories_sizes":[],"default_left":[0,0,0,0,0,0,0,0,0,0,0,0,0,0,0,0,0,0,0,0,0,0,0,0,0,0,0,0,0,0,0,0,0,0,0,0,0],"id":13,"left_children":[1,3,5,7,9,11,-1,13,15,17,19,21,23,-1,25,-1,-1,27,-1,29,31,-1,-1,33,35,-1,-1,-1,-1,-1,-1,-1,-1,-1,-1,-1,-1],"loss_changes":[1.7585728E1,9.268764E1,6.034974E1,1.5371094E0,1.5324606E2,6.6294107E0,0E0,1.1607513E0,3.6243892E0,1.598877E0,2.7230568E0,1.4312711E1,8.659764E0,0E0,1.189621E0,0E0,0E0,1.7573357E1,0E0,2.2393646E0,5.610962E-1,0E0,0E0,7.261162E-1,2.2025621E1,0E0,0E0,0E0,0E0,0E0,0E0,0E0,0E0,0E0,0E0,0E0,0E0],"parents":[2147483647,0,0,1,1,2,2,3,3,4,4,5,5,7,7,8,8,9,9,10,10,11,11,12,12,14,14,17,17,19,19,20,20,23,23,24,24],"right_children":[2,4,6,8,10,12,-1,14,16,18,20,22,24,-1,26,-1,-1,28,-1,30,32,-1,-1,34,36,-1,-1,-1,-1,-1,-1,-1,-1,-1,-1,-1,-1],"split_conditions":[5.714286E-1,-6.174165E-1,3.6842105E-1,-3.6972147E-1,3.6842105E-1,-6.174165E-1,5.633086E-2,4.9317098E-1,-1.0035291E-1,-3.6972147E-1,0E0,1.4814815E-1,3.3333334E-1,4.841809E-2,2.6972508E-3,3.4459125E-2,-1.1159417E-2,-4.2857143E-1,-5.3323355E-2,-3.6972147E-1,3.489742E-1,4.3954127E-2,-5.1043298E-2,5.8983994E-1,-1.9981381E-1,-0E0,3.200346E-2,-5.1974624E-2,1.367791E-3,3.511905E-2,7.017337E-3,5.281427E-2,2.114292E-2,-1.9433547E-2,-4.854144E-2,-5.600903E-2,5.253094E-2],"split_indices":[4,0,0,4,0,0,0,1,5,4,4,5,5,0,8,0,0,4,0,4,4,0,0,4,0,0,0,0,0,0,0,0,0,0,0,0,0],"split_type":[0,0,0,0,0,0,0,0,0,0,0,0,0,0,0,0,0,0,0,0,0,0,0,0,0,0,0,0,0,0,0,0,0,0,0,0,0],"sum_hessian":[4.3564752E2,3.257533E2,1.098942E2,8.190617E1,2.4384712E2,5.8350517E1,5.1543686E1,6.8043625E1,1.3862554E1,1.6847429E2,7.537283E1,1.3540696E1,4.4809822E1,5.2852043E1,1.5191582E1,9.003558E0,4.8589954E0,7.340878E1,9.506551E1,3.5694386E1,3.9678448E1,9.594506E0,3.9461896E0,2.9907557E1,1.4902266E1,5.7483625E0,9.443219E0,5.3388306E1,2.002048E1,1.9224371E1,1.6470015E1,3.1080252E1,8.598194E0,1.0998593E1,1.8908964E1,6.329606E0,8.5726595E0],"tree_param":{"num_deleted":"0","num_feature":"9","num_nodes":"37","size_leaf_vector":"1"}},{"base_weights":[-6.3517815E-3,-1.4619696E-1,3.884887E-1,-6.6061693E-1,6.313938E-2,-1.090898E0,6.5333925E-2,-3.3137584E-1,-7.9010504E-1,-7.158368E-2,2.7267408E-1,5.3166497E-1,-1.0235214E0,-1.3524993E-1,-1.171289E0,-1.5326199E-2,3.4156617E-2,-6.5781996E-2,7.1867876E-2,-2.9212013E-2,-6.473832E-2,1.8297551E-2,-1.4946043E-2,-6.4017974E-2,-2.7652001E-2],"categories":[],"categories_nodes":[],"categories_segments":[],"categories_sizes":[],"default_left":[0,0,0,0,0,0,0,0,0,0,0,0,0,0,0,0,0,0,0,0,0,0,0,0,0],"id":14,"left_children":[1,3,5,7,-1,9,-1,11,13,-1,15,17,19,21,23,-1,-1,-1,-1,-1,-1,-1,-1,-1,-1],"loss_changes":[2.3824223E1,2.3411035E2,1.5576958E2,9.011093E0,0E0,2.178904E1,0E0,4.3971767E1,4.0822014E1,0E0,3.0265436E0,5.8656555E1,2.3870811E0,5.4634194E0,4.752945E0,0E0,0E0,0E0,0E0,0E0,0E0,0E0,0E0,0E0,0E0],"parents":[2147483647,0,0,1,1,2,2,3,3,5,5,7,7,8,8,10,10,11,11,12,12,13,13,14,14],"right_children":[2,4,6,8,-1,10,-1,12,14,-1,16,18,20,22,24,-1,-1,-1,-1,-1,-1,-1,-1,-1,-1],"split_conditions":[5.714286E-1,1.9679487E-1,5.97083E-1,-6.926105E-1,6.313938E-2,8.5714287E-1,6.5333925E-2,-1.2686935E-1,-1.295376E-1,-7.158368E-2,-1.5154405E-1,-7.1428573E-1,-8.542755E-1,-2.7074385E-1,2.857143E-1,-1.5326199E-2,3.4156617E-2,-6.5781996E-2,7.1867876E-2,-2.9212013E-2,-6.473832E-2,1.8297551E-2,-1.4946043E-2,-6.4017974E-2,-2.7652001E-2],"split_indices":[4,6,6,4,0,4,0,6,6,0,6,4,4,4,4,0,0,0,0,0,0,0,0,0,0],"split_type":[0,0,0,0,0,0,0,0,0,0,0,0,0,0,0,0,0,0,0,0,0,0,0,0,0],"sum_hessian":[4.2960577E2,3.1910907E2,1.1049672E2,2.3480057E2,8.4308495E1,4.196385E1,6.853287E1,6.937777E1,1.6542279E2,3.3786842E1,8.177005E0,3.0761892E1,3.861588E1,6.234261E1,1.03080185E2,3.0962136E0,5.080791E0,9.640738E0,2.1121157E1,1.7853437E1,2.0762442E1,1.3986322E1,4.8356285E1,8.511392E1,1.7966265E1],"tree_param":{"num_deleted":"0","num_feature":"9","num_nodes":"25","size_leaf_vector":"1"}},{"base_weights":[-1.3042388E-2,-3.741272E-1,8.471813E-1,-9.290462E-1,1.1513113E0,1.9044025E-1,6.447857E-2,-8.1471816E-2,-1.1374965E0,5.8841635E-2,9.870127E-3,5.592449E-1,-7.052938E-1,7.391076E-1,-1.1459432E0,-8.7527907E-1,-6.452521E-2,-1.0532099E-2,7.2402996E-1,-5.7556447E-2,4.5650047E-3,6.082763E-2,-2.2932254E-2,-6.659835E-2,-2.2753282E-2,-8.048153E-3,-5.4443028E-2,-1.7180255E-3,5.1994927E-2],"categories":[],"categories_nodes":[],"categories_segments":[],"categories_sizes":[],"default_left":[0,0,0,0,0,0,0,0,0,0,0,0,0,0,0,0,0,0,0,0,0,0,0,0,0,0,0,0,0],"id":15,"left_children":[1,3,5,7,9,11,-1,13,15,-1,-1,17,19,21,23,25,-1,-1,27,-1,-1,-1,-1,-1,-1,-1,-1,-1,-1],"loss_changes":[1.320228E2,2.562049E2,3.522795E1,3.8343094E1,8.14064E-1,1.8326754E1,0E0,4.2387154E1,3.7662048E0,0E0,0E0,5.544091E0,6.435632E0,1.700747E1,6.224232E-1,1.0116817E1,0E0,0E0,8.559578E0,0E0,0E0,0E0,0E0,0E0,0E0,0E0,0E0,0E0,0E0],"parents":[2147483647,0,0,1,1,2,2,3,3,4,4,5,5,7,7,8,8,11,11,12,12,13,13,14,14,15,15,18,18],"right_children":[2,4,6,8,10,12,-1,14,16,-1,-1,18,20,22,24,26,-1,-1,28,-1,-1,-1,-1,-1,-1,-1,-1,-1,-1],"split_conditions":[3.6842105E-1,2.1284212E-1,1.5019447E-1,-6.174165E-1,1.3264134E0,-8.793575E-2,6.447857E-2,-1.3263468E-1,-1.2686935E-1,5.8841635E-2,9.870127E-3,-1.513434E-1,-1.1430424E-2,-5.3825533E-1,-2.5273696E-2,-2.7074385E-1,-6.452521E-2,-1.0532099E-2,-1.9832453E-2,-5.7556447E-2,4.5650047E-3,6.082763E-2,-2.2932254E-2,-6.659835E-2,-2.2753282E-2,-8.048153E-3,-5.4443028E-2,-1.7180255E-3,5.1994927E-2],"split_indices":[0,6,6,0,5,6,0,6,6,0,0,6,6,4,6,4,0,0,4,0,0,0,0,0,0,0,0,0,0],"split_type":[0,0,0,0,0,0,0,0,0,0,0,0,0,0,0,0,0,0,0,0,0,0,0,0,0,0,0,0,0],"sum_hessian":[4.2175916E2,2.9826978E2,1.2348938E2,2.1952235E2,7.874741E1,5.130973E1,7.217965E1,4.4354397E1,1.7516795E2,7.572975E1,3.0176606E0,3.7272766E1,1.4036968E1,2.5126492E1,1.9227905E1,7.07053E1,1.04462654E2,5.9382153E0,3.1334549E1,8.831645E0,5.2053227E0,1.8241262E1,6.885227E0,1.3116584E1,6.111321E0,1.7620943E1,5.3084354E1,9.2720785E0,2.2062471E1],"tree_param":{"num_deleted":"0","num_feature":"9","num_nodes":"29","size_leaf_vector":"1"}},{"base_weights":[-2.543331E-3,-3.5396126E-1,8.441699E-1,-8.882376E-1,1.0972555E0,1.769925E-1,6.380429E-2,-5.4667678E-2,-1.0920547E0,1.1979213E0,6.8397236E-1,7.092651E-1,-4.729677E-1,7.2173524E-1,-5.6939024E-2,-8.5836023E-1,-6.1657634E-2,6.184242E-2,1.3472574E-2,-1.1065588E-2,1.1005387E0,-0E0,9.5970976E-1,-5.7427723E-2,-1.1561636E-1,6.026406E-2,-2.896825E-2,-1.2669084E-2,-5.2751787E-2,1.2024951E-2,6.162073E-2,1.4621675E-2,-1.686202E-2,5.481565E-2,1.8767178E-2,-1.865938E-2,1.8335937E-2],"categories":[],"categories_nodes":[],"categories_segments":[],"categories_sizes":[],"default_left":[0,0,0,0,0,0,0,0,0,0,0,0,0,0,0,0,0,0,0,0,0,0,0,0,0,0,0,0,0,0,0,0,0,0,0,0,0],"id":16,"left_children":[1,3,5,7,9,11,-1,13,15,17,19,21,23,25,-1,27,-1,-1,-1,-1,29,31,33,-1,35,-1,-1,-1,-1,-1,-1,-1,-1,-1,-1,-1,-1],"loss_changes":[1.2171106E2,2.2674179E2,3.3344055E1,3.5556824E1,6.9433594E-1,1.8036924E1,0E0,3.9314476E1,2.471054E0,7.36084E-1,8.864253E0,5.2000856E0,4.708937E0,1.8626907E1,0E0,7.406189E0,0E0,0E0,0E0,0E0,3.865757E-1,1.1244712E0,1.402359E-1,0E0,2.5003834E0,0E0,0E0,0E0,0E0,0E0,0E0,0E0,0E0,0E0,0E0,0E0,0E0],"parents":[2147483647,0,0,1,1,2,2,3,3,4,4,5,5,7,7,8,8,9,9,10,10,11,11,12,12,13,13,15,15,20,20,21,21,22,22,24,24],"right_children":[2,4,6,8,10,12,-1,14,16,18,20,22,24,26,-1,28,-1,-1,-1,-1,30,32,34,-1,36,-1,-1,-1,-1,-1,-1,-1,-1,-1,-1,-1,-1],"split_conditions":[3.6842105E-1,2.1284212E-1,1.5019447E-1,-6.174165E-1,-1.9981381E-1,-1.3014261E-1,6.380429E-2,-1.3263468E-1,-1.2686935E-1,1.2962962E0,8.907303E-1,-1.9832453E-2,-5.6426364E-1,-5.3825533E-1,-5.6939024E-2,-2.7074385E-1,-6.1657634E-2,6.184242E-2,1.3472574E-2,-1.1065588E-2,-3.9035207E-1,-7.6004863E-3,4.9462017E-1,-5.7427723E-2,3.5231687E-2,6.026406E-2,-2.896825E-2,-1.2669084E-2,-5.2751787E-2,1.2024951E-2,6.162073E-2,1.4621675E-2,-1.686202E-2,5.481565E-2,1.8767178E-2,-1.865938E-2,1.8335937E-2],"split_indices":[0,6,6,0,0,6,0,6,6,5,6,4,5,4,0,4,0,0,0,0,5,5,4,0,4,0,0,0,0,0,0,0,0,0,0,0,0],"split_type":[0,0,0,0,0,0,0,0,0,0,0,0,0,0,0,0,0,0,0,0,0,0,0,0,0,0,0,0,0,0,0,0,0,0,0,0,0],"sum_hessian":[4.058591E2,2.880584E2,1.17800674E2,2.113637E2,7.6694725E1,4.7855633E1,6.9945045E1,4.2507286E1,1.6885641E2,5.7646503E1,1.9048223E1,2.6632357E1,2.1223274E1,2.4889576E1,1.761771E1,7.023675E1,9.861967E1,5.4172474E1,3.4740279E0,5.9200025E0,1.3128221E1,7.348012E0,1.9284344E1,5.326321E0,1.5896954E1,1.853335E1,6.3562255E0,1.897821E1,5.1258533E1,3.0003E0,1.012792E1,3.8889952E0,3.4590168E0,1.3516837E1,5.7675076E0,1.1333804E1,4.563149E0],"tree_param":{"num_deleted":"0","num_feature":"9","num_nodes":"37","size_leaf_vector":"1"}},{"base_weights":[8.8062196E-4,-6.6494226E-1,1.1749345E0,-1.6968434E-1,-1.1239352E0,1.0525185E-2,5.981915E-2,1.3171005E-1,-9.632498E-1,-3.1973886E-1,-1.2402922E0,-6.462182E-2,3.5095355E-1,-6.557972E-2,2.2472036E-1,2.8106688E-2,-6.061077E-1,-6.5018445E-2,-7.028022E-1,6.5577984E-2,-2.1514853E-3,-2.1363532E-2,4.3478996E-2,-5.6918275E-2,2.6787585E-2,-5.558324E-2,2.3552931E-3],"categories":[],"categories_nodes":[],"categories_segments":[],"categories_sizes":[],"default_left":[0,0,0,0,0,0,0,0,0,0,0,0,0,0,0,0,0,0,0,0,0,0,0,0,0,0,0],"id":17,"left_children":[1,3,5,7,9,-1,-1,11,13,15,17,-1,19,-1,21,-1,23,-1,25,-1,-1,-1,-1,-1,-1,-1,-1],"loss_changes":[3.1502246E2,5.731939E1,1.8127594E0,3.0887127E1,1.0809998E1,0E0,0E0,2.9432814E1,1.5812542E1,5.745369E0,8.63739E-1,0E0,3.1915443E1,0E0,4.927005E0,0E0,1.152565E1,0E0,5.7534895E0,0E0,0E0,0E0,0E0,0E0,0E0,0E0,0E0],"parents":[2147483647,0,0,1,1,2,2,3,3,4,4,7,7,8,8,9,9,10,10,12,12,14,14,16,16,18,18],"right_children":[2,4,6,8,10,-1,-1,12,14,16,18,-1,20,-1,22,-1,24,-1,26,-1,-1,-1,-1,-1,-1,-1,-1],"split_conditions":[1.5019447E-1,-1.2686935E-1,1.9679487E-1,4.9462017E-1,-8.542755E-1,1.0525185E-2,5.981915E-2,-7.1428573E-1,8.5714287E-1,-9.147615E-2,3.6842105E-1,-6.462182E-2,-5.3825533E-1,-6.557972E-2,-1.5202391E-1,2.8106688E-2,-1.1430424E-2,-6.5018445E-2,1.9423868E-1,6.5577984E-2,-2.1514853E-3,-2.1363532E-2,4.3478996E-2,-5.6918275E-2,2.6787585E-2,-5.558324E-2,2.3552931E-3],"split_indices":[6,6,6,4,4,0,0,4,4,0,0,0,4,0,6,0,6,0,4,0,0,0,0,0,0,0,0],"split_type":[0,0,0,0,0,0,0,0,0,0,0,0,0,0,0,0,0,0,0,0,0,0,0,0,0,0,0],"sum_hessian":[3.9866537E2,2.5467622E2,1.4398917E2,1.24340416E2,1.303358E2,4.110295E0,1.3987886E2,9.0867226E1,3.3473183E1,1.796491E1,1.12370895E2,1.0512213E1,8.035502E1,2.604798E1,7.4252043E0,3.5036082E0,1.4461302E1,9.76836E1,1.4687292E1,2.238566E1,5.7969357E1,3.6422021E0,3.7830021E0,1.01664095E1,4.294892E0,9.312116E0,5.375177E0],"tree_param":{"num_deleted":"0","num_feature":"9","num_nodes":"27","size_leaf_vector":"1"}},{"base_weights":[1.7419201E-3,-6.2524813E-1,5.8094006E-2,-1.3909978E-1,-1.0573018E0,-5.9114546E-2,1.5438108E-1,-1.1033233E0,3.3421721E-3,-5.897916E-2,3.0860278E-1,-3.4574997E-1,-6.0687628E-2,6.379647E-2,-1.4778244E-3,-4.8953142E-2,2.0856585E-3],"categories":[],"categories_nodes":[],"categories_segments":[],"categories_sizes":[],"default_left":[0,0,0,0,0,0,0,0,0,0,0,0,0,0,0,0,0],"id":18,"left_children":[1,3,-1,5,7,-1,9,11,-1,-1,13,15,-1,-1,-1,-1,-1],"loss_changes":[2.9024045E2,5.340551E1,0E0,3.8991608E1,7.70282E0,0E0,2.0566814E1,9.358078E0,0E0,0E0,3.0223E1,5.474262E0,0E0,0E0,0E0,0E0,0E0],"parents":[2147483647,0,0,1,1,3,3,4,4,6,6,7,7,10,10,11,11],"right_children":[2,4,-1,6,8,-1,10,12,-1,-1,14,16,-1,-1,-1,-1,-1],"split_conditions":[2.1284212E-1,-1.2686935E-1,5.8094006E-2,-1.5421349E-1,1.5019447E-1,-5.9114546E-2,-7.1428573E-1,-8.542755E-1,3.3421721E-3,-5.897916E-2,-5.3825533E-1,-8.5714287E-1,-6.0687628E-2,6.379647E-2,-1.4778244E-3,-4.8953142E-2,2.0856585E-3],"split_indices":[6,6,0,6,6,0,4,4,0,0,4,4,0,0,0,0,0],"split_type":[0,0,0,0,0,0,0,0,0,0,0,0,0,0,0,0,0],"sum_hessian":[3.9464713E2,2.5650928E2,1.3813783E2,1.2248729E2,1.3402199E2,2.5937595E1,9.65497E1,1.2921391E2,4.80808E0,8.291528E0,8.825816E1,1.8066017E1,1.11147896E2,2.1807802E1,6.645036E1,6.1881523E0,1.1877866E1],"tree_param":{"num_deleted":"0","num_feature":"9","num_nodes":"17","size_leaf_vector":"1"}},{"base_weights":[-2.0172147E-3,-5.6558836E-1,5.537935E-2,-4.9406666E-2,-3.602371E-1,-1.6739157E-3,6.570684E-1,2.8349701E-2,-5.8553946E-1,-3.3371577E-1,7.995245E-1,2.4480045E-1,5.531755E-2,-0E0,-6.9393975E-1,1.008126E-1,-6.0122126E-1,3.2423267E-1,4.6175044E-2,4.778753E-2,-4.705642E-1,-4.899018E-2,-0E0,3.147719E-2,-2.5996802E-2,1.5415494E-2,-3.9978802E-2,4.015799E-2,2.0335682E-3,-4.6272907E-2,-0E0],"categories":[],"categories_nodes":[],"categories_segments":[],"categories_sizes":[],"default_left":[0,0,0,0,0,0,0,0,0,0,0,0,0,0,0,0,0,0,0,0,0,0,0,0,0,0,0,0,0,0,0],"id":19,"left_children":[1,3,5,-1,7,9,11,-1,13,15,17,19,-1,-1,21,23,25,27,-1,-1,29,-1,-1,-1,-1,-1,-1,-1,-1,-1,-1],"loss_changes":[1.2720172E1,1.774333E0,1.2310286E1,0E0,6.617693E0,8.543185E1,4.5229254E0,0E0,1.4467878E0,2.6884829E1,4.310898E0,1.0962661E1,0E0,0E0,3.9716387E0,2.9563793E1,2.6389317E1,2.6830478E0,0E0,0E0,2.274575E0,0E0,0E0,0E0,0E0,0E0,0E0,0E0,0E0,0E0,0E0],"parents":[2147483647,0,0,1,1,2,2,4,4,5,5,6,6,8,8,9,9,10,10,11,11,14,14,15,15,16,16,17,17,20,20],"right_children":[2,4,6,-1,8,10,12,-1,14,16,18,20,-1,-1,22,24,26,28,-1,-1,30,-1,-1,-1,-1,-1,-1,-1,-1,-1,-1],"split_conditions":[-7.1428573E-1,-6E-1,1.1851852E0,-4.9406666E-2,-4.0415078E-1,3.6842105E-1,3.3052522E-1,2.8349701E-2,-5.8356243E-1,-3.6972147E-1,0E0,-3.6972147E-1,5.531755E-2,-0E0,3.627626E-1,-6.174165E-1,-6.174165E-1,-3.6972147E-1,4.6175044E-2,4.778753E-2,-1.9981381E-1,-4.899018E-2,-0E0,3.147719E-2,-2.5996802E-2,1.5415494E-2,-3.9978802E-2,4.015799E-2,2.0335682E-3,-4.6272907E-2,-0E0],"split_indices":[4,1,5,0,0,0,0,0,1,4,4,4,0,0,0,0,0,4,0,0,0,0,0,0,0,0,0,0,0,0,0],"split_type":[0,0,0,0,0,0,0,0,0,0,0,0,0,0,0,0,0,0,0,0,0,0,0,0,0,0,0,0,0,0,0],"sum_hessian":[3.8141748E2,3.4423157E1,3.4699432E2,7.968315E0,2.645484E1,3.1800403E2,2.8990288E1,4.1447425E0,2.2310099E1,2.260944E2,9.190962E1,1.7309488E1,1.16807995E1,3.9973326E0,1.8312765E1,8.591449E1,1.4017992E2,2.1344425E1,7.056519E1,8.695013E0,8.614476E0,1.2326129E1,5.9866366E0,4.681571E1,3.909878E1,2.4447865E1,1.15732056E2,5.919114E0,1.542531E1,3.399991E0,5.2144847E0],"tree_param":{"num_deleted":"0","num_feature":"9","num_nodes":"31","size_leaf_vector":"1"}},{"base_weights":[2.8467497E-3,-6.353229E-1,5.65912E-2,-6.7479944E-1,4.7988984E-1,-8.713839E-1,1.1030806E-1,-7.663788E-3,4.6208058E-2,-1.6609578E-1,-1.0577663E0,-2.1968949E-1,3.7936318E-1,2.8662844E-2,-5.417437E-2,-4.2618524E-2,-5.878241E-2,-3.4777146E-2,4.359984E-2,3.3771228E-2,-5.3134065E-2],"categories":[],"categories_nodes":[],"categories_segments":[],"categories_sizes":[],"default_left":[0,0,0,0,0,0,0,0,0,0,0,0,0,0,0,0,0,0,0,0,0],"id":20,"left_children":[1,3,-1,5,7,9,11,-1,-1,13,15,17,19,-1,-1,-1,-1,-1,-1,-1,-1],"loss_changes":[2.7804373E2,1.1577484E1,0E0,3.7445274E1,3.2420008E0,2.4249115E1,4.6065845E0,0E0,0E0,3.0679502E1,6.324158E-1,1.2806609E1,1.346044E1,0E0,0E0,0E0,0E0,0E0,0E0,0E0,0E0],"parents":[2147483647,0,0,1,1,3,3,4,4,5,5,6,6,9,9,10,10,11,11,12,12],"right_children":[2,4,-1,6,8,10,12,-1,-1,14,16,18,20,-1,-1,-1,-1,-1,-1,-1,-1],"split_conditions":[1.9679487E-1,8.5714287E-1,5.65912E-2,3.6842105E-1,3.3052522E-1,-6.174165E-1,0E0,-7.663788E-3,4.6208058E-2,-1.3335495E-1,-1.2819792E-1,-1.1430424E-2,-8.564535E-2,2.8662844E-2,-5.417437E-2,-4.2618524E-2,-5.878241E-2,-3.4777146E-2,4.359984E-2,3.3771228E-2,-5.3134065E-2],"split_indices":[6,4,0,0,0,0,4,0,0,6,6,6,6,0,0,0,0,0,0,0,0],"split_type":[0,0,0,0,0,0,0,0,0,0,0,0,0,0,0,0,0,0,0,0,0],"sum_hessian":[3.8157443E2,2.4405223E2,1.375222E2,2.3690442E2,7.147814E0,1.8979771E2,4.710671E1,3.0234342E0,4.124379E0,4.1024017E1,1.487737E2,2.0487402E1,2.6619307E1,2.2829931E1,1.8194084E1,6.1798992E1,8.697471E1,1.5092505E1,5.3948956E0,2.3254892E1,3.364414E0],"tree_param":{"num_deleted":"0","num_feature":"9","num_nodes":"21","size_leaf_vector":"1"}},{"base_weights":[4.1590673E-3,-3.0261642E-1,7.1762747E-1,5.566436E-1,-6.989771E-1,3.2795048E-1,8.5984665E-1,6.661925E-1,7.093511E-2,-0E0,-7.2107625E-1,4.5737752E-1,-0E0,6.18676E-1,5.3314835E-2,4.6115923E-1,7.798591E-1,5.73855E-1,-4.918519E-2,-8.683909E-1,-5.323001E-1,6.0609166E-2,6.369169E-1,2.3426287E-2,-3.7060123E-2,6.7349446E-1,-0E0,3.3477813E-2,-1.17220385E-2,4.1584503E-2,4.8965346E-3,4.1986736E-5,3.5360362E-2,-4.4779237E-2,-1.7072987E-3,-1.189652E-2,-4.0144358E-2,1.34905E-2,-2.9787542E-3,4.395042E-2,8.39883E-3,-0E0,3.9325204E-2],"categories":[],"categories_nodes":[],"categories_segments":[],"categories_sizes":[],"default_left":[0,0,0,0,0,0,0,0,0,0,0,0,0,0,0,0,0,0,0,0,0,0,0,0,0,0,0,0,0,0,0,0,0,0,0,0,0,0,0,0,0,0,0],"id":21,"left_children":[1,3,5,7,9,11,13,15,17,-1,19,21,23,25,-1,27,29,31,-1,33,35,37,39,-1,-1,41,-1,-1,-1,-1,-1,-1,-1,-1,-1,-1,-1,-1,-1,-1,-1,-1,-1],"loss_changes":[8.151497E1,8.9164E1,5.0594406E0,3.9304314E0,2.6332397E0,1.5393806E0,1.8221283E0,2.0528412E-1,1.061678E1,0E0,3.1866074E0,1.3496504E0,4.6522303E0,1.1425667E0,0E0,4.895994E0,7.220669E-1,7.1135235E-1,0E0,1.5729904E0,5.668127E0,4.0989298E-1,1.0070257E0,0E0,0E0,2.960476E0,0E0,0E0,0E0,0E0,0E0,0E0,0E0,0E0,0E0,0E0,0E0,0E0,0E0,0E0,0E0,0E0,0E0],"parents":[2147483647,0,0,1,1,2,2,3,3,4,4,5,5,6,6,7,7,8,8,10,10,11,11,12,12,13,13,15,15,16,16,17,17,19,19,20,20,21,21,22,22,25,25],"right_children":[2,4,6,8,10,12,14,16,18,-1,20,22,24,26,-1,28,30,32,-1,34,36,38,40,-1,-1,42,-1,-1,-1,-1,-1,-1,-1,-1,-1,-1,-1,-1,-1,-1,-1,-1,-1],"split_conditions":[3.6842105E-1,-6.174165E-1,0E0,1.9423868E-1,-9.7267354E-1,1.820663E-1,1.0091583E-1,-4.2857143E-1,1.4814815E-1,-0E0,3.7037037E-2,-8.542755E-1,-3.6972147E-1,3.3462044E-2,5.3314835E-2,-6.926105E-1,8.169509E-1,3.489742E-1,-4.918519E-2,1.0060517E0,8.00032E-3,-3.9035207E-1,-2.7074385E-1,2.3426287E-2,-3.7060123E-2,-6.242992E-1,-0E0,3.3477813E-2,-1.17220385E-2,4.1584503E-2,4.8965346E-3,4.1986736E-5,3.5360362E-2,-4.4779237E-2,-1.7072987E-3,-1.189652E-2,-4.0144358E-2,1.34905E-2,-2.9787542E-3,4.395042E-2,8.39883E-3,-0E0,3.9325204E-2],"split_indices":[0,0,4,4,5,5,5,4,5,0,5,4,4,5,0,4,8,4,0,8,8,5,4,0,0,8,0,0,0,0,0,0,0,0,0,0,0,0,0,0,0,0,0],"split_type":[0,0,0,0,0,0,0,0,0,0,0,0,0,0,0,0,0,0,0,0,0,0,0,0,0,0,0,0,0,0,0,0,0,0,0,0,0,0,0,0,0,0,0],"sum_hessian":[3.6749527E2,2.5730905E2,1.1018624E2,8.057101E1,1.7673804E2,3.216969E1,7.801655E1,6.4296646E1,1.6274357E1,5.723461E0,1.7101457E2,2.2926037E1,9.243652E0,4.078625E1,3.7230297E1,2.810806E1,3.6188587E1,1.1957904E1,4.3164535E0,9.0523865E1,8.049071E1,8.843233E0,1.4082804E1,5.9535093E0,3.2901428E0,3.6623535E1,4.1627192E0,2.223907E1,5.8689904E0,3.254269E1,3.645898E0,3.3452804E0,8.612623E0,8.694339E1,3.5804796E0,4.123639E1,3.9254322E1,3.8361356E0,5.0070977E0,7.431255E0,6.651549E0,5.516052E0,3.1107481E1],"tree_param":{"num_deleted":"0","num_feature":"9","num_nodes":"43","size_leaf_vector":"1"}},{"base_weights":[-3.2212853E-3,-6.1132115E-1,1.086185E0,-1.984899E-1,-1.0043021E0,5.518161E-2,7.502509E-3,-8.867739E-1,1.8528314E-1,-5.655353E-2,-3.2617864E-1,-2.4888122E-1,-9.782913E-1,-6.951338E-2,7.478446E-1,-7.50451E-1,1.2079794E-1,8.356183E-3,-3.2893162E-2,-5.1846784E-2,-1.0404483E-2,-1.9813238E-2,7.2424435E-3,-0E0,4.8106905E-2,-6.047081E-2,1.2573704E-2,1.9656798E-2,-1.0063946E-2],"categories":[],"categories_nodes":[],"categories_segments":[],"categories_sizes":[],"default_left":[0,0,0,0,0,0,0,0,0,0,0,0,0,0,0,0,0,0,0,0,0,0,0,0,0,0,0,0,0],"id":22,"left_children":[1,3,5,7,9,-1,-1,11,13,-1,15,17,19,21,23,25,27,-1,-1,-1,-1,-1,-1,-1,-1,-1,-1,-1,-1],"loss_changes":[2.4272263E2,3.7231598E1,1.1830444E0,3.1858692E1,8.816406E0,0E0,0E0,1.4136543E0,1.1476119E1,0E0,4.719633E0,1.9576228E0,5.853424E-1,4.036505E0,3.8133373E0,6.732786E0,1.306246E0,0E0,0E0,0E0,0E0,0E0,0E0,0E0,0E0,0E0,0E0,0E0,0E0],"parents":[2147483647,0,0,1,1,2,2,3,3,4,4,7,7,8,8,10,10,11,11,12,12,13,13,14,14,15,15,16,16],"right_children":[2,4,6,8,10,-1,-1,12,14,-1,16,18,20,22,24,26,28,-1,-1,-1,-1,-1,-1,-1,-1,-1,-1,-1,-1],"split_conditions":[1.9679487E-1,-1.2686935E-1,1.5164002E0,-1.513434E-1,3.6842105E-1,5.518161E-2,7.502509E-3,-6.174165E-1,3.454773E-1,-5.655353E-2,-3.7037037E-2,2.6339543E-1,8.6977565E-1,-1.6573182E-1,-1.4011092E-1,7.922789E-5,3.7037036E-1,8.356183E-3,-3.2893162E-2,-5.1846784E-2,-1.0404483E-2,-1.9813238E-2,7.2424435E-3,-0E0,4.8106905E-2,-6.047081E-2,1.2573704E-2,1.9656798E-2,-1.0063946E-2],"split_indices":[6,6,6,6,0,0,0,0,0,0,5,5,5,5,6,6,5,0,0,0,0,0,0,0,0,0,0,0,0],"split_type":[0,0,0,0,0,0,0,0,0,0,0,0,0,0,0,0,0,0,0,0,0,0,0,0,0,0,0,0,0],"sum_hessian":[3.6274533E2,2.3365642E2,1.2908891E2,1.1603879E2,1.1761763E2,1.2585139E2,3.2375247E0,4.1067364E1,7.497142E1,9.7346466E1,2.0271166E1,6.7714643E0,3.42959E1,5.2195156E1,2.2776264E1,1.0276957E1,9.99421E0,3.3371727E0,3.4342918E0,3.0622442E1,3.673457E0,2.0928814E1,3.1266344E1,5.688212E0,1.7088053E1,7.1064606E0,3.170496E0,6.0173216E0,3.9768882E0],"tree_param":{"num_deleted":"0","num_feature":"9","num_nodes":"29","size_leaf_vector":"1"}},{"base_weights":[9.648625E-3,-5.7605946E-1,1.0951506E0,-9.844791E-2,-1.0011204E0,5.5694472E-2,5.9105614E-3,-9.884326E-1,2.147298E-1,-1.0968164E0,-5.993898E-1,-1.0790699E0,-6.162861E-3,-5.1185723E-2,3.4149206E-1,-5.7947565E-2,-6.520066E-1,3.312177E-2,-9.559666E-1,-1.0664439E-2,-5.8539744E-2,6.0373224E-2,1.7605302E-3,-5.9437323E-2,-0E0,-5.678829E-2,-8.4141636E-4],"categories":[],"categories_nodes":[],"categories_segments":[],"categories_sizes":[],"default_left":[0,0,0,0,0,0,0,0,0,0,0,0,0,0,0,0,0,0,0,0,0,0,0,0,0,0,0],"id":23,"left_children":[1,3,5,7,9,-1,-1,11,13,15,17,19,-1,-1,21,-1,23,-1,25,-1,-1,-1,-1,-1,-1,-1,-1],"loss_changes":[2.3226913E2,4.7316086E1,1.4672699E0,3.2656685E1,2.6230698E0,0E0,0E0,1.5255241E0,1.3818516E1,2.6765442E-1,1.4625861E1,9.3982697E-1,0E0,0E0,2.0418392E1,0E0,6.6689906E0,0E0,3.441906E0,0E0,0E0,0E0,0E0,0E0,0E0,0E0,0E0],"parents":[2147483647,0,0,1,1,2,2,3,3,4,4,7,7,8,8,9,9,10,10,11,11,14,14,16,16,18,18],"right_children":[2,4,6,8,10,-1,-1,12,14,16,18,20,-1,-1,22,-1,24,-1,26,-1,-1,-1,-1,-1,-1,-1,-1],"split_conditions":[1.9679487E-1,-1.295376E-1,1.5164002E0,-1.531187E-1,-5.1354077E-3,5.5694472E-2,5.9105614E-3,3.3052522E-1,-7.1428573E-1,3.627626E-1,-8.542755E-1,-2.7074385E-1,-6.162861E-3,-5.1185723E-2,-5.3825533E-1,-5.7947565E-2,5.8925282E-2,3.312177E-2,3.3052522E-1,-1.0664439E-2,-5.8539744E-2,6.0373224E-2,1.7605302E-3,-5.9437323E-2,-0E0,-5.678829E-2,-8.4141636E-4],"split_indices":[6,6,6,6,6,0,0,0,4,0,4,4,0,0,4,0,5,0,0,0,0,0,0,0,0,0,0],"split_type":[0,0,0,0,0,0,0,0,0,0,0,0,0,0,0,0,0,0,0,0,0,0,0,0,0,0,0],"sum_hessian":[3.6093246E2,2.3474715E2,1.26185326E2,1.122543E2,1.2249285E2,1.23033226E2,3.1521027E0,2.851239E1,8.3741905E1,9.512752E1,2.736533E1,2.4837952E1,3.6744392E0,6.0953474E0,7.764656E1,7.9664246E1,1.5463277E1,5.3423843E0,2.2022945E1,3.5386598E0,2.1299292E1,1.8323109E1,5.9323452E1,7.9728756E0,7.4904017E0,1.7685827E1,4.3371177E0],"tree_param":{"num_deleted":"0","num_feature":"9","num_nodes":"27","size_leaf_vector":"1"}},{"base_weights":[4.3794643E-2,-2.6205224E-1,7.482136E-1,-7.2602284E-1,9.7078997E-1,2.3507084E-1,5.7410844E-2,-3.170704E-1,-5.43271E-2,1.0016994E0,4.8319446E-3,5.965184E-1,-3.2019472E-1,3.6641636E-1,-8.0332226E-1,5.691725E-2,6.265459E-1,7.372847E-1,7.584248E-2,-0E0,-5.873809E-1,3.3431068E-2,-0E0,-1.35555E-2,-4.6517838E-2,4.5204256E-2,1.01751E-2,4.13954E-2,7.2292485E-3,-9.5324535E-3,1.705664E-2,-1.3296718E-2,1.727325E-2,-1.07907085E-2,-4.322378E-2],"categories":[],"categories_nodes":[],"categories_segments":[],"categories_sizes":[],"default_left":[0,0,0,0,0,0,0,0,0,0,0,0,0,0,0,0,0,0,0,0,0,0,0,0,0,0,0,0,0,0,0,0,0,0,0],"id":24,"left_children":[1,3,5,7,9,11,-1,13,-1,15,-1,17,19,21,23,-1,25,27,29,31,33,-1,-1,-1,-1,-1,-1,-1,-1,-1,-1,-1,-1,-1,-1],"loss_changes":[7.565649E1,1.4073235E2,2.061472E1,2.4935715E1,1.0734901E0,1.0491933E1,0E0,2.9766508E1,0E0,9.800873E-1,0E0,1.7785454E0,1.8765652E0,4.145612E0,2.4083366E0,0E0,1.726469E0,5.46484E-1,8.878805E-1,1.1999612E0,2.692201E-1,0E0,0E0,0E0,0E0,0E0,0E0,0E0,0E0,0E0,0E0,0E0,0E0,0E0,0E0],"parents":[2147483647,0,0,1,1,2,2,3,3,4,4,5,5,7,7,9,9,11,11,12,12,13,13,14,14,16,16,17,17,18,18,19,19,20,20],"right_children":[2,4,6,8,10,12,-1,14,-1,16,-1,18,20,22,24,-1,26,28,30,32,34,-1,-1,-1,-1,-1,-1,-1,-1,-1,-1,-1,-1,-1,-1],"split_conditions":[3.6842105E-1,2.1284212E-1,1.0321806E-1,-1.2686935E-1,1.0085433E0,-1.2686935E-1,5.7410844E-2,-2.8263363E-1,-5.43271E-2,-3.6466098E-1,4.8319446E-3,4.3992835E-1,3.6892077E-1,-6.315789E-1,-6.6350174E-1,5.691725E-2,-1.7391305E-1,5.1085025E-1,-5E-2,1.1577606E-1,2.7949136E-1,3.3431068E-2,-0E0,-1.35555E-2,-4.6517838E-2,4.5204256E-2,1.01751E-2,4.13954E-2,7.2292485E-3,-9.5324535E-3,1.705664E-2,-1.3296718E-2,1.727325E-2,-1.07907085E-2,-4.322378E-2],"split_indices":[0,6,6,6,8,6,0,0,0,0,0,8,0,0,2,0,7,1,1,8,1,0,0,0,0,0,0,0,0,0,0,0,0,0,0],"split_type":[0,0,0,0,0,0,0,0,0,0,0,0,0,0,0,0,0,0,0,0,0,0,0,0,0,0,0,0,0,0,0,0,0,0,0],"sum_hessian":[3.4621646E2,2.4178406E2,1.0443241E2,1.7656352E2,6.522054E1,4.7685093E1,5.6747314E1,8.513597E1,9.142754E1,6.2158836E1,3.0617049E0,2.9338934E1,1.8346159E1,3.5167854E1,4.9968117E1,4.160368E1,2.0555157E1,2.168422E1,7.6547146E0,8.861053E0,9.485106E0,1.8435547E1,1.6732307E1,1.1594995E1,3.8373123E1,1.0325189E1,1.0229969E1,1.7388285E1,4.2959347E0,3.1591978E0,4.495517E0,4.888534E0,3.9725192E0,6.3424315E0,3.142675E0],"tree_param":{"num_deleted":"0","num_feature":"9","num_nodes":"35","size_leaf_vector":"1"}},{"base_weights":[-0E0,-5.5463004E-1,1.0196851E0,-1.2189363E-1,-9.8409605E-1,7.782443E-1,5.7686444E-2,-3.5236153E-1,5.191179E-1,-5.4227766E-2,-4.7388864E-1,8.427368E-1,3.4804658E-3,4.7646567E-1,-7.1531916E-1,-3.6465134E-2,8.0859685E-1,-9.834428E-1,9.011072E-2,5.29113E-2,5.4499835E-1,5.5539817E-2,-3.05632E-2,-4.477335E-2,4.8906016E-3,1.9488009E-2,-3.191319E-2,3.1567298E-4,5.587132E-2,-5.9895128E-2,-5.2043805E-3,-1.740704E-2,3.6650144E-2,4.3180745E-2,-1.406011E-3],"categories":[],"categories_nodes":[],"categories_segments":[],"categories_sizes":[],"default_left":[0,0,0,0,0,0,0,0,0,0,0,0,0,0,0,0,0,0,0,0,0,0,0,0,0,0,0,0,0,0,0,0,0,0,0],"id":25,"left_children":[1,3,5,7,9,11,-1,13,15,-1,17,19,-1,21,23,25,27,29,31,-1,33,-1,-1,-1,-1,-1,-1,-1,-1,-1,-1,-1,-1,-1,-1],"loss_changes":[1.977013E2,4.1238106E1,1.2264557E0,1.734767E1,3.9665833E0,1.7787247E0,0E0,2.6892256E1,5.3959074E0,0E0,7.2056813E0,1.0186424E0,0E0,2.0371578E1,9.588051E0,3.6656895E0,4.6064463E0,1.4881487E0,4.1504693E0,0E0,4.9508367E0,0E0,0E0,0E0,0E0,0E0,0E0,0E0,0E0,0E0,0E0,0E0,0E0,0E0,0E0],"parents":[2147483647,0,0,1,1,2,2,3,3,4,4,5,5,7,7,8,8,10,10,11,11,13,13,14,14,15,15,16,16,17,17,18,18,20,20],"right_children":[2,4,6,8,10,12,-1,14,16,-1,18,20,-1,22,24,26,28,30,32,-1,34,-1,-1,-1,-1,-1,-1,-1,-1,-1,-1,-1,-1,-1,-1],"split_conditions":[1.5019447E-1,-1.2686935E-1,6.639801E-1,3.454773E-1,3.6842105E-1,6.318367E-1,5.7686444E-2,-5.7798564E-1,-3.478261E-1,-5.4227766E-2,3.3462044E-2,-5.7798564E-1,3.4804658E-3,-5.3825533E-1,-1.355013E-1,-1.9878776E-1,-1.4423609E-1,-2.227744E-2,3.5231687E-2,5.29113E-2,-3.6972147E-1,5.5539817E-2,-3.05632E-2,-4.477335E-2,4.8906016E-3,1.9488009E-2,-3.191319E-2,3.1567298E-4,5.587132E-2,-5.9895128E-2,-5.2043805E-3,-1.740704E-2,3.6650144E-2,4.3180745E-2,-1.406011E-3],"split_indices":[6,6,6,0,0,7,0,0,7,0,5,0,0,4,6,5,6,6,4,0,4,0,0,0,0,0,0,0,0,0,0,0,0,0,0],"split_type":[0,0,0,0,0,0,0,0,0,0,0,0,0,0,0,0,0,0,0,0,0,0,0,0,0,0,0,0,0,0,0,0,0,0,0],"sum_hessian":[3.4539243E2,2.2416096E2,1.21231476E2,1.1351421E2,1.1064675E2,4.9469116E1,7.176236E1,8.473088E1,2.8783333E1,8.9744705E1,2.0902046E1,4.434889E1,5.120227E0,2.5194736E1,5.9536144E1,9.866964E0,1.8916368E1,1.0665378E1,1.0236668E1,2.1790318E1,2.2558573E1,1.6177673E1,9.017063E0,4.9075863E1,1.0460282E1,5.7022047E0,4.1647596E0,6.2749877E0,1.264138E1,7.534693E0,3.1306849E0,6.1699257E0,4.066742E0,1.4407579E1,8.150993E0],"tree_param":{"num_deleted":"0","num_feature":"9","num_nodes":"35","size_leaf_vector":"1"}},{"base_weights":[-0E0,-2.9325256E-1,6.596846E-1,-3.350603E-2,-3.671823E-1,4.734145E-1,7.837168E-1,5.0292003E-1,-3.719106E-1,5.21773E-1,-7.320709E-1,5.5774605E-1,2.4882535E-2,2.572289E-1,8.650048E-1,3.5674434E-2,-1.5554312E-2,-6.8175524E-1,1.0099669E-2,6.120648E-1,1.464096E-1,-0E0,-7.6865494E-1,2.4548952E-1,3.916944E-2,1.2935333E-2,-7.331062E-3,3.309317E-2,-8.359475E-3,1.1326642E-2,4.4857215E-2,-6.067398E-4,-4.1675314E-2,1.0932395E-2,-1.4567769E-2,1.1279873E-2,3.462047E-2,-1.0346844E-2,2.0775003E-2,-2.3932552E-2,-4.062199E-2,1.0414686E-3,3.8225215E-2],"categories":[],"categories_nodes":[],"categories_segments":[],"categories_sizes":[],"default_left":[0,0,0,0,0,0,0,0,0,0,0,0,0,0,0,0,0,0,0,0,0,0,0,0,0,0,0,0,0,0,0,0,0,0,0,0,0,0,0,0,0,0,0],"id":26,"left_children":[1,3,5,7,9,11,13,15,17,19,21,23,25,27,29,-1,-1,31,33,35,37,-1,39,41,-1,-1,-1,-1,-1,-1,-1,-1,-1,-1,-1,-1,-1,-1,-1,-1,-1,-1,-1],"loss_changes":[6.4280266E1,4.1835747E0,9.9383926E-1,1.021356E1,5.8285988E1,1.4802866E0,1.423542E0,4.3106594E0,4.513496E0,1.2134867E0,3.5592346E0,1.8495102E0,5.553893E-1,2.4027493E0,6.603241E-3,0E0,0E0,1.6071463E0,1.1599854E0,4.843235E-1,1.5922008E0,0E0,1.12838745E-1,1.931605E0,0E0,0E0,0E0,0E0,0E0,0E0,0E0,0E0,0E0,0E0,0E0,0E0,0E0,0E0,0E0,0E0,0E0,0E0,0E0],"parents":[2147483647,0,0,1,1,2,2,3,3,4,4,5,5,6,6,7,7,8,8,9,9,10,10,11,11,12,12,13,13,14,14,17,17,18,18,19,19,20,20,22,22,23,23],"right_children":[2,4,6,8,10,12,14,16,18,20,22,24,26,28,30,-1,-1,32,34,36,38,-1,40,42,-1,-1,-1,-1,-1,-1,-1,-1,-1,-1,-1,-1,-1,-1,-1,-1,-1,-1,-1],"split_conditions":[3.6842105E-1,-6.6350174E-1,-3.7037037E-2,-5.7798564E-1,-6.174165E-1,-2.5925925E-1,-6.718943E-1,5.217391E-1,3.3462044E-2,4.2285398E-1,-9.467292E-1,4.093878E-2,-5.8356243E-1,-1.1228765E0,-6.8602276E-1,3.5674434E-2,-1.5554312E-2,-2.6069948E-1,2.2283716E-1,-2.8973429E-2,-8.5299574E-2,-0E0,-4.0415078E-1,7.416631E-1,3.916944E-2,1.2935333E-2,-7.331062E-3,3.309317E-2,-8.359475E-3,1.1326642E-2,4.4857215E-2,-6.067398E-4,-4.1675314E-2,1.0932395E-2,-1.4567769E-2,1.1279873E-2,3.462047E-2,-1.0346844E-2,2.0775003E-2,-2.3932552E-2,-4.062199E-2,1.0414686E-3,3.8225215E-2],"split_indices":[0,2,5,0,0,5,7,7,5,1,5,8,1,7,1,0,0,0,8,2,8,0,0,1,0,0,0,0,0,0,0,0,0,0,0,0,0,0,0,0,0,0,0],"split_type":[0,0,0,0,0,0,0,0,0,0,0,0,0,0,0,0,0,0,0,0,0,0,0,0,0,0,0,0,0,0,0,0,0,0,0,0,0,0,0,0,0,0,0],"sum_hessian":[3.279167E2,2.2757484E2,1.0034183E2,5.256418E1,1.7501067E2,4.5570107E1,5.477172E1,1.9385386E1,3.3178795E1,5.028188E1,1.2472878E2,3.7009895E1,8.560213E0,9.262158E0,4.550956E1,1.6085558E1,3.2998264E0,1.8175995E1,1.5002801E1,3.8441696E1,1.1840185E1,5.7520804E0,1.1897671E2,1.8206526E1,1.8803368E1,4.4253135E0,4.1348996E0,4.7718797E0,4.490279E0,3.69812E0,4.181144E1,4.365866E0,1.3810128E1,1.0173041E1,4.8297596E0,8.9981985E0,2.9443497E1,4.515137E0,7.325048E0,2.0235088E1,9.8741615E1,1.4830599E1,3.3759277E0],"tree_param":{"num_deleted":"0","num_feature":"9","num_nodes":"43","size_leaf_vector":"1"}},{"base_weights":[-1.261068E-2,-2.786357E-1,5.9355474E-1,4.9210662E-1,-6.343772E-1,1.5677413E-1,7.6518387E-1,-8.1774704E-2,5.2592028E-2,-4.667787E-2,8.031872E-1,-7.012519E-1,5.3598322E-2,2.2030583E-1,5.5517893E-2,1.2562177E-1,-3.668041E-1,4.69754E-3,8.7542385E-1,-3.996125E-1,-4.9184505E-2,4.923769E-2,3.5299933E-1,3.5586905E-2,-3.1761844E-2,1.0605177E-2,-4.759261E-2,2.1314634E-2,5.2733537E-2,8.080982E-3,-4.8943006E-2,2.153141E-2,-3.5261147E-2,3.330375E-2,-6.5120473E-3],"categories":[],"categories_nodes":[],"categories_segments":[],"categories_sizes":[],"default_left":[0,0,0,0,0,0,0,0,0,0,0,0,0,0,0,0,0,0,0,0,0,0,0,0,0,0,0,0,0,0,0,0,0,0,0],"id":27,"left_children":[1,3,5,7,9,11,13,15,-1,-1,17,19,-1,21,-1,23,25,-1,27,29,-1,31,33,-1,-1,-1,-1,-1,-1,-1,-1,-1,-1,-1,-1],"loss_changes":[5.40478E1,6.488973E1,6.942993E0,2.4626379E1,7.102793E1,2.6896841E1,1.2361752E1,2.47438E0,0E0,0E0,8.1655693E-1,1.2665749E-2,0E0,4.6615684E-1,0E0,1.1029745E1,6.747841E0,0E0,3.7975883E-1,4.8486586E0,0E0,5.4999323E0,2.7783985E0,0E0,0E0,0E0,0E0,0E0,0E0,0E0,0E0,0E0,0E0,0E0,0E0],"parents":[2147483647,0,0,1,1,2,2,3,3,4,4,5,5,6,6,7,7,10,10,11,11,13,13,15,15,16,16,18,18,19,19,21,21,22,22],"right_children":[2,4,6,8,10,12,14,16,-1,-1,18,20,-1,22,-1,24,26,-1,28,30,-1,32,34,-1,-1,-1,-1,-1,-1,-1,-1,-1,-1,-1,-1],"split_conditions":[3.6842105E-1,-6.174165E-1,-1.9832453E-2,1.9679487E-1,2.4114808E-1,7.922789E-5,3.8032988E-1,1.8624662E-1,5.2592028E-2,-4.667787E-2,-6.8602276E-1,3.8822123E-1,5.3598322E-2,8.1008956E-2,5.5517893E-2,-1.3263468E-1,-1.3374388E-1,4.69754E-3,6.639801E-1,-1.2686935E-1,-4.9184505E-2,-1.2617068E-1,-1.3014261E-1,3.5586905E-2,-3.1761844E-2,1.0605177E-2,-4.759261E-2,2.1314634E-2,5.2733537E-2,8.080982E-3,-4.8943006E-2,2.153141E-2,-3.5261147E-2,3.330375E-2,-6.5120473E-3],"split_indices":[0,0,4,6,6,6,6,1,0,0,1,8,0,8,0,6,6,0,6,6,0,6,6,0,0,0,0,0,0,0,0,0,0,0,0],"split_type":[0,0,0,0,0,0,0,0,0,0,0,0,0,0,0,0,0,0,0,0,0,0,0,0,0,0,0,0,0,0,0,0,0,0,0],"sum_hessian":[3.320946E2,2.3212744E2,9.996718E1,7.2619446E1,1.5950798E2,3.0101572E1,6.986561E1,3.6258762E1,3.6360687E1,1.3289865E2,2.6609335E1,1.5495332E1,1.4606239E1,2.8927244E1,4.0938366E1,2.0619608E1,1.5639154E1,3.524811E0,2.3084522E1,1.0684495E1,4.8108373E0,1.5480295E1,1.344695E1,1.2091426E1,8.528181E0,8.0720825E0,7.567072E0,9.307942E0,1.3776581E1,5.7205963E0,4.9638987E0,1.1292798E1,4.187497E0,8.328903E0,5.1180463E0],"tree_param":{"num_deleted":"0","num_feature":"9","num_nodes":"35","size_leaf_vector":"1"}},{"base_weights":[4.4042394E-3,-5.502765E-1,1.0052339E0,-1.446873E-1,-4.564363E-2,2.3688059E-1,1.0402863E0,-5.2141238E-2,-4.8198053E-1,-2.930532E-3,2.680679E-2,5.30108E-2,1.7584885E-2,-5.1829856E-2,1.9815493E-1,-4.602827E-2,4.360265E-2,-7.2646826E-3,1.8106883E-2,2.7387926E-2,-2.4347112E-2],"categories":[],"categories_nodes":[],"categories_segments":[],"categories_sizes":[],"default_left":[0,0,0,0,0,0,0,0,0,0,0,0,0,0,0,0,0,0,0,0,0],"id":28,"left_children":[1,3,5,7,-1,9,11,13,15,-1,-1,-1,-1,-1,17,-1,19,-1,-1,-1,-1],"loss_changes":[1.7837718E2,2.9526665E1,1.9591293E0,2.8148265E0,0E0,1.0283608E0,3.7719727E-2,2.1070467E1,5.174635E0,0E0,0E0,0E0,0E0,0E0,3.9738762E0,0E0,3.3934178E0,0E0,0E0,0E0,0E0],"parents":[2147483647,0,0,1,1,2,2,3,3,5,5,6,6,7,7,8,8,14,14,16,16],"right_children":[2,4,6,8,-1,10,12,14,16,-1,-1,-1,-1,-1,18,-1,20,-1,-1,-1,-1],"split_conditions":[1.5019447E-1,-1.3014261E-1,2.2580668E-1,5.1085025E-1,-4.564363E-2,-3.5347036E-1,1.4814814E0,-1.5493374E-1,-1.502798E-1,-2.930532E-3,2.680679E-2,5.30108E-2,1.7584885E-2,-5.1829856E-2,-3.478261E-1,-4.602827E-2,-3.2454434E-1,-7.2646826E-3,1.8106883E-2,2.7387926E-2,-2.4347112E-2],"split_indices":[6,6,6,1,0,5,5,6,6,0,0,0,0,0,7,0,2,0,0,0,0],"split_type":[0,0,0,0,0,0,0,0,0,0,0,0,0,0,0,0,0,0,0,0,0],"sum_hessian":[3.169161E2,2.0416458E2,1.1275152E2,9.834066E1,1.0582393E2,6.218635E0,1.0653288E2,8.014276E1,1.8197897E1,3.0975356E0,3.1210997E0,1.0178154E2,4.7513423E0,1.5377033E1,6.476573E1,9.619219E0,8.578678E0,2.0018154E1,4.4747574E1,4.8486934E0,3.7299845E0],"tree_param":{"num_deleted":"0","num_feature":"9","num_nodes":"21","size_leaf_vector":"1"}},{"base_weights":[2.672135E-3,-5.224889E-1,9.767807E-1,-1.1951491E-1,-9.094479E-1,9.940323E-1,9.351894E-3,-7.9021627E-1,2.6175687E-1,-9.55381E-2,-1.0372131E0,1.815784E-2,1.016866E0,-5.376904E-2,-3.836877E-1,3.1192278E-2,7.574437E-1,-4.7844585E-2,3.737284E-2,-3.2385373E-1,-1.077275E0,1.585627E-2,5.226135E-2,2.1743064E-3,-4.8179373E-2,3.0906156E-2,-1.9418597E-2,4.328976E-2,6.874293E-3,-2.3755258E-2,-0E0,-5.85239E-2,-3.0910317E-2],"categories":[],"categories_nodes":[],"categories_segments":[],"categories_sizes":[],"default_left":[0,0,0,0,0,0,0,0,0,0,0,0,0,0,0,0,0,0,0,0,0,0,0,0,0,0,0,0,0,0,0,0,0],"id":29,"left_children":[1,3,5,7,9,11,-1,13,15,17,19,-1,21,-1,23,25,27,-1,-1,29,31,-1,-1,-1,-1,-1,-1,-1,-1,-1,-1,-1,-1],"loss_changes":[1.6247157E2,3.1349297E1,5.5568695E-1,2.7200512E1,1.0052139E1,1.2658691E-1,0E0,2.9158516E0,7.2332845E0,1.3767947E1,1.1500473E0,0E0,6.863022E-1,0E0,5.431575E0,1.256513E1,6.4037037E-1,0E0,0E0,2.6727325E-1,1.205719E0,0E0,0E0,0E0,0E0,0E0,0E0,0E0,0E0,0E0,0E0,0E0,0E0],"parents":[2147483647,0,0,1,1,2,2,3,3,4,4,5,5,7,7,8,8,9,9,10,10,12,12,14,14,15,15,16,16,19,19,20,20],"right_children":[2,4,6,8,10,12,-1,14,16,18,20,-1,22,-1,24,26,28,-1,-1,30,32,-1,-1,-1,-1,-1,-1,-1,-1,-1,-1,-1,-1],"split_conditions":[1.5019447E-1,-1.295376E-1,1.1289138E0,-1.513434E-1,-8.542755E-1,-8.542755E-1,9.351894E-3,-1.5493374E-1,-1.3597666E-1,-2.9589767E-2,-1.24596655E-1,1.815784E-2,-8.486282E-1,-5.376904E-2,3.489742E-1,-5.3825533E-1,-1.3180707E-1,-4.7844585E-2,3.737284E-2,-1.2819792E-1,2.857143E-1,1.585627E-2,5.226135E-2,2.1743064E-3,-4.8179373E-2,3.0906156E-2,-1.9418597E-2,4.328976E-2,6.874293E-3,-2.3755258E-2,-0E0,-5.85239E-2,-3.0910317E-2],"split_indices":[6,6,8,6,4,4,0,6,6,6,6,0,8,0,4,4,6,0,0,6,4,0,0,0,0,0,0,0,0,0,0,0,0],"split_type":[0,0,0,0,0,0,0,0,0,0,0,0,0,0,0,0,0,0,0,0,0,0,0,0,0,0,0,0,0,0,0,0,0],"sum_hessian":[3.131585E2,2.0373497E2,1.0942355E2,1.0171752E2,1.0201744E2,1.05958466E2,3.465092E0,3.6563797E1,6.5153725E1,1.4846823E1,8.7170616E1,5.6468587E0,1.0031161E2,1.883281E1,1.7730986E1,4.6608654E1,1.854507E1,7.503162E0,7.3436613E0,6.2648277E0,8.090579E1,5.543057E0,9.476855E1,1.0778777E1,6.952209E0,1.953135E1,2.7077305E1,1.4424487E1,4.120583E0,3.0242517E0,3.240576E0,6.377024E1,1.713555E1],"tree_param":{"num_deleted":"0","num_feature":"9","num_nodes":"33","size_leaf_vector":"1"}},{"base_weights":[7.2986037E-3,-1.0171386E-1,1.2841344E-1,5.6827223E-1,-2.9407722E-1,-1.6312943E-1,7.2763497E-1,7.7919805E-1,1.5264891E-1,-7.037626E-1,4.1768685E-1,2.7911916E-1,-3.8970643E-1,2.2260441E-1,8.858086E-1,4.543681E-2,7.6712067E-3,4.193699E-1,-1.0702271E-2,-2.7139804E-1,-8.65312E-1,3.105075E-2,4.8833662E-1,4.416936E-1,-0E0,-1.4393662E-1,-6.121309E-1,3.40701E-2,-2.3428926E-1,4.6997454E-2,1.3814631E-2,2.2858684E-3,2.7904958E-2,1.6524416E-3,-2.7717143E-2,-0E0,-4.5800842E-2,1.8464362E-2,-1.4867668E-2,2.8956247E-2,3.6234327E-3,-0E0,2.7182216E-2,-3.1296096E-3,1.0678735E-2,1.726811E-2,-1.8153263E-2,-3.6095247E-2,-6.9156806E-3,-0E0,-1.5626421E-2],"categories":[],"categories_nodes":[],"categories_segments":[],"categories_sizes":[],"default_left":[0,0,0,0,0,0,0,0,0,0,0,0,0,0,0,0,0,0,0,0,0,0,0,0,0,0,0,0,0,0,0,0,0,0,0,0,0,0,0,0,0,0,0,0,0,0,0,0,0,0,0],"id":30,"left_children":[1,3,5,7,9,11,13,15,17,19,21,23,25,27,29,-1,-1,31,-1,33,35,37,39,41,43,45,47,-1,49,-1,-1,-1,-1,-1,-1,-1,-1,-1,-1,-1,-1,-1,-1,-1,-1,-1,-1,-1,-1,-1,-1],"loss_changes":[4.1461306E0,2.1158516E1,2.6793911E1,2.4856882E0,3.8131214E1,1.051819E1,3.0576878E0,1.0422659E0,1.8014311E0,4.731041E0,1.0119734E0,1.4057939E0,3.2280493E0,3.7681725E0,8.572006E-2,0E0,0E0,1.891545E-1,0E0,2.556111E0,2.6373672E0,1.4322693E0,1.0654392E0,8.7994003E-1,3.018464E-1,4.178809E0,1.1717768E0,0E0,3.7620664E-2,0E0,0E0,0E0,0E0,0E0,0E0,0E0,0E0,0E0,0E0,0E0,0E0,0E0,0E0,0E0,0E0,0E0,0E0,0E0,0E0,0E0,0E0],"parents":[2147483647,0,0,1,1,2,2,3,3,4,4,5,5,6,6,7,7,8,8,9,9,10,10,11,11,12,12,13,13,14,14,17,17,19,19,20,20,21,21,22,22,23,23,24,24,25,25,26,26,28,28],"right_children":[2,4,6,8,10,12,14,16,18,20,22,24,26,28,30,-1,-1,32,-1,34,36,38,40,42,44,46,48,-1,50,-1,-1,-1,-1,-1,-1,-1,-1,-1,-1,-1,-1,-1,-1,-1,-1,-1,-1,-1,-1,-1,-1],"split_conditions":[3.7037037E-2,-6.174165E-1,3.6842105E-1,-4.4444445E-1,3.6842105E-1,-6.174165E-1,-5.217391E-1,4.6436143E-1,1.9438492E-1,-1.9981381E-1,-6.242992E-1,8.285316E-2,8.00032E-3,3.6892077E-1,5.544343E-1,4.543681E-2,7.6712067E-3,-2.22899E-1,-1.0702271E-2,-4.4444445E-1,-1E0,-5.534172E-1,-2.5925925E-1,-6.853988E-1,7.1284914E-1,-6.6350174E-1,3.0084112E-1,3.40701E-2,-9.6317655E-1,4.6997454E-2,1.3814631E-2,2.2858684E-3,2.7904958E-2,1.6524416E-3,-2.7717143E-2,-0E0,-4.5800842E-2,1.8464362E-2,-1.4867668E-2,2.8956247E-2,3.6234327E-3,-0E0,2.7182216E-2,-3.1296096E-3,1.0678735E-2,1.726811E-2,-1.8153263E-2,-3.6095247E-2,-6.9156806E-3,-0E0,-1.5626421E-2],"split_indices":[5,0,0,5,0,0,7,8,8,0,8,1,8,0,1,0,0,5,0,5,5,5,5,8,5,2,7,0,7,0,0,0,0,0,0,0,0,0,0,0,0,0,0,0,0,0,0,0,0,0,0],"split_type":[0,0,0,0,0,0,0,0,0,0,0,0,0,0,0,0,0,0,0,0,0,0,0,0,0,0,0,0,0,0,0,0,0,0,0,0,0,0,0,0,0,0,0,0,0,0,0,0,0,0,0],"sum_hessian":[3.0903915E2,1.6064165E2,1.483975E2,3.4382523E1,1.26259125E2,1.0024555E2,4.815196E1,2.084917E1,1.3533352E1,8.059455E1,4.5664574E1,3.3055332E1,6.719022E1,1.3386412E1,3.476555E1,1.5862242E1,4.986929E0,8.457725E0,5.0756273E0,2.4222187E1,5.6372364E1,8.593296E0,3.7071278E1,1.9204567E1,1.3850765E1,3.4552902E1,3.2637318E1,6.7349663E0,6.6514454E0,3.0180206E1,4.5853415E0,3.9857528E0,4.471972E0,1.1667401E1,1.2554786E1,3.1402512E0,5.3232113E1,4.860651E0,3.7326448E0,2.8797123E1,8.274156E0,4.230036E0,1.4974531E1,1.0288866E1,3.5618992E0,9.625633E0,2.4927269E1,2.4791237E1,7.8460827E0,3.404286E0,3.2471592E0],"tree_param":{"num_deleted":"0","num_feature":"9","num_nodes":"51","size_leaf_vector":"1"}},{"base_weights":[-3.768346E-4,-4.7702268E-1,9.5572E-1,-6.936487E-1,2.074525E-1,1.1283551E-2,9.8061085E-1,-3.028609E-1,-1.018272E0,4.8804274E-1,-9.152705E-2,1.565936E-2,5.0417334E-2,5.3999716E-1,-7.2896385E-1,-2.9040638E-1,-5.494539E-2,-5.5265132E-2,9.227746E-1,-3.557761E-1,4.148088E-1,-4.818042E-2,5.7321753E-2,-3.8658593E-2,-0E0,-3.2099187E-2,-0E0,-2.794793E-2,4.0332433E-2,5.3863365E-2,4.181956E-3,-3.541824E-2,3.7205901E-3,-0E0,2.939941E-2],"categories":[],"categories_nodes":[],"categories_segments":[],"categories_sizes":[],"default_left":[0,0,0,0,0,0,0,0,0,0,0,0,0,0,0,0,0,0,0,0,0,0,0,0,0,0,0,0,0,0,0,0,0,0,0],"id":31,"left_children":[1,3,5,7,9,-1,11,13,15,17,19,-1,-1,21,23,25,-1,27,29,31,33,-1,-1,-1,-1,-1,-1,-1,-1,-1,-1,-1,-1,-1,-1],"loss_changes":[1.4071898E2,3.1187683E1,8.178024E-1,1.8774834E1,4.5399456E0,0E0,5.2012634E-1,2.7914425E1,3.6439972E0,6.990269E0,3.6590257E0,0E0,0E0,2.6035753E1,1.486496E0,1.1797817E0,0E0,6.648605E0,1.2882738E0,3.211815E0,3.617735E-1,0E0,0E0,0E0,0E0,0E0,0E0,0E0,0E0,0E0,0E0,0E0,0E0,0E0,0E0],"parents":[2147483647,0,0,1,1,2,2,3,3,4,4,6,6,7,7,8,8,9,9,10,10,13,13,14,14,15,15,17,17,18,18,19,19,20,20],"right_children":[2,4,6,8,10,-1,12,14,16,18,20,-1,-1,22,24,26,-1,28,30,32,34,-1,-1,-1,-1,-1,-1,-1,-1,-1,-1,-1,-1,-1,-1],"split_conditions":[2.1284212E-1,3.6842105E-1,-8.542755E-1,-1.3014261E-1,-1.3014261E-1,1.1283551E-2,-8.486282E-1,-5.3825533E-1,-8.542755E-1,-1.3959233E-1,-1.1430424E-2,1.565936E-2,5.0417334E-2,-7.425462E-1,8.5714287E-1,-8.5714287E-1,-5.494539E-2,8.5714287E-1,3.8822123E-1,3.5231687E-2,-1.4232008E-1,-4.818042E-2,5.7321753E-2,-3.8658593E-2,-0E0,-3.2099187E-2,-0E0,-2.794793E-2,4.0332433E-2,5.3863365E-2,4.181956E-3,-3.541824E-2,3.7205901E-3,-0E0,2.939941E-2],"split_indices":[6,0,4,6,6,0,8,4,4,6,6,0,0,4,4,4,0,4,8,4,7,0,0,0,0,0,0,0,0,0,0,0,0,0,0],"split_type":[0,0,0,0,0,0,0,0,0,0,0,0,0,0,0,0,0,0,0,0,0,0,0,0,0,0,0,0,0,0,0,0,0,0,0],"sum_hessian":[3.0530856E2,2.0475603E2,1.00552536E2,1.560669E2,4.8689133E1,4.641377E0,9.5911156E1,7.3269646E1,8.279725E1,2.5327284E1,2.3361847E1,5.526815E0,9.038434E1,2.4029598E1,4.9240047E1,9.794059E0,7.30032E1,1.1522549E1,1.3804734E1,1.6390226E1,6.971622E0,6.3307304E0,1.7698868E1,4.603465E1,3.2053986E0,3.2759428E0,6.5181155E0,8.082378E0,3.4401708E0,1.0675803E1,3.1289315E0,8.935531E0,7.4546947E0,3.4601336E0,3.5114884E0],"tree_param":{"num_deleted":"0","num_feature":"9","num_nodes":"35","size_leaf_vector":"1"}},{"base_weights":[2.8523847E-2,-3.0569532E-3,3.639916E-1,-4.7411162E-1,9.6967965E-1,-5.8132213E-2,4.152724E-2,-6.52657E-1,6.323567E-2,5.0491285E-2,4.4987604E-1,1.1966235E-2,-2.1618752E-1,-2.7173525E-1,-4.8813622E-2,4.1884577E-1,-3.195106E-1,-4.0115253E-3,4.0487044E-2,5.4570984E-2,-3.1640638E-2,1.462643E-2,-3.5261806E-2,-0E0,3.142632E-2,-3.7288468E-3,-2.603952E-2,-1.224056E-2,2.123992E-2],"categories":[],"categories_nodes":[],"categories_segments":[],"categories_sizes":[],"default_left":[0,0,0,0,0,0,0,0,0,0,0,0,0,0,0,0,0,0,0,0,0,0,0,0,0,0,0,0,0],"id":32,"left_children":[1,3,5,7,9,11,-1,13,15,-1,17,-1,19,21,-1,23,25,-1,-1,27,-1,-1,-1,-1,-1,-1,-1,-1,-1],"loss_changes":[3.330607E0,1.2539137E2,5.789216E0,1.8133282E1,2.212143E-1,8.1838405E-1,0E0,1.6077656E1,6.752863E0,0E0,2.5719376E0,0E0,1.7387974E0,1.7176764E1,0E0,2.185207E0,7.698684E-1,0E0,0E0,1.2436529E0,0E0,0E0,0E0,0E0,0E0,0E0,0E0,0E0,0E0],"parents":[2147483647,0,0,1,1,2,2,3,3,4,4,5,5,7,7,8,8,10,10,12,12,13,13,15,15,16,16,19,19],"right_children":[2,4,6,8,10,12,-1,14,16,-1,18,-1,20,22,-1,24,26,-1,-1,28,-1,-1,-1,-1,-1,-1,-1,-1,-1],"split_conditions":[1.1851852E0,1.6863295E-1,2.5898156E-1,3.6842105E-1,6.318367E-1,-6.174165E-1,4.152724E-2,-1.295376E-1,-1.3014261E-1,5.0491285E-2,3.8032988E-1,1.1966235E-2,-1.2819792E-1,-2.6069948E-1,-4.8813622E-2,-2.7905598E-1,3.6892077E-1,-4.0115253E-3,4.0487044E-2,-1.6269507E-1,-3.1640638E-2,1.462643E-2,-3.5261806E-2,-0E0,3.142632E-2,-3.7288468E-3,-2.603952E-2,-1.224056E-2,2.123992E-2],"split_indices":[5,6,6,0,7,0,0,6,6,0,6,0,6,0,0,7,0,0,0,0,0,0,0,0,0,0,0,0,0],"split_type":[0,0,0,0,0,0,0,0,0,0,0,0,0,0,0,0,0,0,0,0,0,0,0,0,0,0,0,0,0],"sum_hessian":[2.9513168E2,2.7018765E2,2.4944042E1,1.8307263E2,8.711502E1,1.3452092E1,1.1491949E1,1.3779016E2,4.528247E1,7.822606E1,8.888959E0,3.2131648E0,1.0238927E1,6.569096E1,7.20992E1,2.4052746E1,2.1229725E1,3.6608953E0,5.2280636E0,6.531874E0,3.7070532E0,2.8322342E1,3.736862E1,8.951709E0,1.5101037E1,1.1933365E1,9.296361E0,3.2393672E0,3.292507E0],"tree_param":{"num_deleted":"0","num_feature":"9","num_nodes":"29","size_leaf_vector":"1"}},{"base_weights":[1.9915288E-3,-4.3807676E-1,9.370003E-1,-8.000946E-2,-8.1923383E-1,9.592302E-1,5.7116444E-3,-2.6380584E-1,4.2164022E-1,-9.8403645E-1,-1.3407251E-1,9.820495E-1,1.255669E-2,2.6079062E-1,-7.001343E-1,-2.008792E-2,7.313965E-1,-5.504613E-2,-6.153953E-1,-4.7094527E-1,2.8321428E-2,1.4175226E-2,1.0035793E0,-4.5313608E-2,3.0770576E-2,-4.746949E-2,9.030052E-3,4.927571E-2,-0E0,-1.042151E-2,-4.288865E-2,-5.3107977E-2,4.019917E-3,5.1488936E-2,1.5936295E-2],"categories":[],"categories_nodes":[],"categories_segments":[],"categories_sizes":[],"default_left":[0,0,0,0,0,0,0,0,0,0,0,0,0,0,0,0,0,0,0,0,0,0,0,0,0,0,0,0,0,0,0,0,0,0,0],"id":33,"left_children":[1,3,5,7,9,11,-1,13,15,17,19,21,-1,23,25,-1,27,-1,29,31,-1,-1,33,-1,-1,-1,-1,-1,-1,-1,-1,-1,-1,-1,-1],"loss_changes":[1.2184005E2,2.6793911E1,9.8044586E-1,9.945798E0,1.0046722E1,3.698349E-1,0E0,1.884304E1,8.033586E0,1.0915298E0,5.5754967E0,1.0101318E-1,0E0,1.6347765E1,1.0520412E1,0E0,4.522706E0,0E0,1.4794483E0,5.9221954E0,0E0,0E0,1.6305542E-1,0E0,0E0,0E0,0E0,0E0,0E0,0E0,0E0,0E0,0E0,0E0,0E0],"parents":[2147483647,0,0,1,1,2,2,3,3,4,4,5,5,7,7,8,8,9,9,10,10,11,11,13,13,14,14,16,16,18,18,19,19,22,22],"right_children":[2,4,6,8,10,12,-1,14,16,18,20,22,-1,24,26,-1,28,-1,30,32,-1,-1,34,-1,-1,-1,-1,-1,-1,-1,-1,-1,-1,-1,-1],"split_conditions":[2.1284212E-1,-1.2686935E-1,1.4800706E0,3.454773E-1,3.6842105E-1,1.0757002E0,5.7116444E-3,-2.6069948E-1,-1.5010804E-1,-2.227744E-2,-5.1354077E-3,2.4114808E-1,1.255669E-2,-1.5385336E-1,-1.355013E-1,-2.008792E-2,5.8925282E-2,-5.504613E-2,2.2570977E-2,-3.7037037E-2,2.8321428E-2,1.4175226E-2,1.4814814E0,-4.5313608E-2,3.0770576E-2,-4.746949E-2,9.030052E-3,4.927571E-2,-0E0,-1.042151E-2,-4.288865E-2,-5.3107977E-2,4.019917E-3,5.1488936E-2,1.5936295E-2],"split_indices":[6,6,6,0,0,8,0,0,6,6,6,6,0,6,6,0,5,0,6,5,0,0,5,0,0,0,0,0,0,0,0,0,0,0,0],"split_type":[0,0,0,0,0,0,0,0,0,0,0,0,0,0,0,0,0,0,0,0,0,0,0,0,0,0,0,0,0,0,0,0,0,0,0],"sum_hessian":[2.915094E2,1.985763E2,9.2933105E1,1.0431351E2,9.426279E1,8.957354E1,3.3595643E0,7.776618E1,2.6547323E1,7.4694305E1,1.9568483E1,8.534335E1,4.230187E0,3.5156414E1,4.2609768E1,6.653279E0,1.9894043E1,5.2666103E1,2.2028198E1,1.4138446E1,5.430036E0,4.093317E0,8.125004E1,7.139392E0,2.8017021E1,3.3531796E1,9.077974E0,1.4715488E1,5.178555E0,1.0380895E1,1.1647305E1,6.3659887E0,7.7724576E0,7.658293E1,4.6671057E0],"tree_param":{"num_deleted":"0","num_feature":"9","num_nodes":"35","size_leaf_vector":"1"}},{"base_weights":[-1.8040452E-3,-4.3940347E-1,9.096903E-1,-4.202931E-2,-8.1791764E-1,6.393607E-1,5.3197633E-2,-4.8719097E-2,1.8504804E-1,-9.938755E-1,-1.9776899E-1,1.009616E0,-1.0315204E-1,-4.571406E-2,2.9246342E-1,-3.0226797E-1,-1.0752028E0,-4.5548165E-1,3.764089E-1,1.3342929E-2,5.3541034E-2,5.771759E-2,-3.172472E-4,2.3095232E-2,-4.0612396E-2,-5.531956E-2,-1.232855E-2,-4.4477146E-2,1.2818771E-2,1.1954447E-4,2.503641E-2],"categories":[],"categories_nodes":[],"categories_segments":[],"categories_sizes":[],"default_left":[0,0,0,0,0,0,0,0,0,0,0,0,0,0,0,0,0,0,0,0,0,0,0,0,0,0,0,0,0,0,0],"id":34,"left_children":[1,3,5,7,9,11,-1,-1,13,15,17,19,-1,-1,21,23,25,27,29,-1,-1,-1,-1,-1,-1,-1,-1,-1,-1,-1,-1],"loss_changes":[1.1293303E2,2.8389011E1,1.6102371E0,2.117475E1,9.6623E0,4.3153114E1,0E0,0E0,9.529845E0,2.8747635E0,4.0372176E0,4.0703583E-1,0E0,0E0,1.9575033E1,5.333608E0,4.732666E-1,6.505523E0,1.24795556E-1,0E0,0E0,0E0,0E0,0E0,0E0,0E0,0E0,0E0,0E0,0E0,0E0],"parents":[2147483647,0,0,1,1,2,2,3,3,4,4,5,5,8,8,9,9,10,10,11,11,14,14,15,15,16,16,17,17,18,18],"right_children":[2,4,6,8,10,12,-1,-1,14,16,18,20,-1,-1,22,24,26,28,30,-1,-1,-1,-1,-1,-1,-1,-1,-1,-1,-1,-1],"split_conditions":[2.1284212E-1,-1.2879387E-1,6.639801E-1,-1.5421349E-1,3.6842105E-1,-8.7231435E-2,5.3197633E-2,-4.8719097E-2,-7.1428573E-1,-8.542755E-1,7.922789E-5,-9.487385E-1,-1.0315204E-1,-4.571406E-2,-5.3825533E-1,-9.147615E-2,1.0321806E-1,1.9423868E-1,0E0,1.3342929E-2,5.3541034E-2,5.771759E-2,-3.172472E-4,2.3095232E-2,-4.0612396E-2,-5.531956E-2,-1.232855E-2,-4.4477146E-2,1.2818771E-2,1.1954447E-4,2.503641E-2],"split_indices":[6,6,6,6,0,4,0,0,4,4,6,4,0,0,4,0,6,4,7,0,0,0,0,0,0,0,0,0,0,0,0],"split_type":[0,0,0,0,0,0,0,0,0,0,0,0,0,0,0,0,0,0,0,0,0,0,0,0,0,0,0,0,0,0,0],"sum_hessian":[2.7971808E2,1.900577E2,8.966041E1,9.444737E1,9.561031E1,3.749122E1,5.2169186E1,1.763992E1,7.680746E1,7.291129E1,2.2699022E1,3.423809E1,3.25313E0,5.0852265E0,7.172223E1,9.3110895E0,6.36002E1,1.6553463E1,6.14556E0,4.044541E0,3.0193548E1,1.742067E1,5.430156E1,3.409811E0,5.9012785E0,6.0065617E1,3.5345848E0,1.0409406E1,6.1440578E0,3.04499E0,3.1005697E0],"tree_param":{"num_deleted":"0","num_feature":"9","num_nodes":"31","size_leaf_vector":"1"}},{"base_weights":[1.0880212E-2,-4.332868E-1,9.238914E-1,-4.731831E-1,4.5608076E-1,5.1339376E-3,9.637988E-1,-1.4919499E-1,-8.2363313E-1,-3.7849804E-3,4.3591473E-2,9.201708E-3,4.9697813E-2,-5.1015515E-2,3.312246E-2,-9.484235E-1,-3.0091977E-1,1.11556845E-2,-5.3706404E-2,-0E0,-5.4152098E-2,-2.9313779E-2,1.5683537E-2],"categories":[],"categories_nodes":[],"categories_segments":[],"categories_sizes":[],"default_left":[0,0,0,0,0,0,0,0,0,0,0,0,0,0,0,0,0,0,0,0,0,0,0],"id":35,"left_children":[1,3,5,7,9,-1,11,13,15,-1,-1,-1,-1,-1,17,19,21,-1,-1,-1,-1,-1,-1],"loss_changes":[1.1505829E2,7.1863403E0,2.3172684E0,2.0100853E1,2.440937E0,0E0,1.1119003E0,1.6208899E1,4.476799E0,0E0,0E0,0E0,0E0,0E0,1.7500843E1,8.328136E0,4.0924454E0,0E0,0E0,0E0,0E0,0E0,0E0],"parents":[2147483647,0,0,1,1,2,2,3,3,4,4,6,6,7,7,8,8,14,14,15,15,16,16],"right_children":[2,4,6,8,10,-1,12,14,16,-1,-1,-1,-1,-1,18,20,22,-1,-1,-1,-1,-1,-1],"split_conditions":[1.9679487E-1,8.5714287E-1,-8.486282E-1,-1.24596655E-1,-1.5048257E-1,5.1339376E-3,-8.542755E-1,-1.5493374E-1,3.6842105E-1,-3.7849804E-3,4.3591473E-2,9.201708E-3,4.9697813E-2,-5.1015515E-2,4.9462017E-1,-8.542755E-1,1.9423868E-1,1.11556845E-2,-5.3706404E-2,-0E0,-5.4152098E-2,-2.9313779E-2,1.5683537E-2],"split_indices":[6,4,8,6,6,0,4,6,0,0,0,0,0,0,4,4,4,0,0,0,0,0,0],"split_type":[0,0,0,0,0,0,0,0,0,0,0,0,0,0,0,0,0,0,0,0,0,0,0],"sum_hessian":[2.791445E2,1.8812672E2,9.101776E1,1.8148363E2,6.643104E0,5.1298933E0,8.588786E1,9.652514E1,8.495849E1,3.1048758E0,3.538228E0,4.3442984E0,8.154357E1,1.5589254E1,8.093588E1,6.649772E1,1.8460773E1,7.083072E1,1.0105159E1,8.869818E0,5.76279E1,1.3225729E1,5.2350445E0],"tree_param":{"num_deleted":"0","num_feature":"9","num_nodes":"23","size_leaf_vector":"1"}},{"base_weights":[1.5563153E-2,-4.415171E-1,9.187817E-1,-9.945594E-2,-8.384492E-1,1.3967529E-2,4.6986237E-2,-5.1086422E-2,9.777654E-2,-9.654357E-1,-3.341604E-1,7.300316E-1,-8.667913E-2,-1.473149E-1,-5.3940285E-2,-4.6905327E-1,6.9488245E-3,5.3111967E-2,-5.339445E-3,-2.7541567E-2,2.344005E-2,-4.0007185E-2,3.964184E-2,-3.921848E-2,8.319633E-3],"categories":[],"categories_nodes":[],"categories_segments":[],"categories_sizes":[],"default_left":[0,0,0,0,0,0,0,0,0,0,0,0,0,0,0,0,0,0,0,0,0,0,0,0,0],"id":36,"left_children":[1,3,5,7,9,-1,-1,-1,11,13,15,17,19,21,-1,23,-1,-1,-1,-1,-1,-1,-1,-1,-1],"loss_changes":[1.1273232E2,2.3885872E1,9.6328735E-2,1.8843452E1,3.9978027E0,0E0,0E0,0E0,1.0212171E1,5.0213203E0,1.6022985E0,6.1904173E0,1.757122E1,7.8173285E0,0E0,4.019011E0,0E0,0E0,0E0,0E0,0E0,0E0,0E0,0E0,0E0],"parents":[2147483647,0,0,1,1,2,2,3,3,4,4,8,8,9,9,10,10,11,11,12,12,13,13,15,15],"right_children":[2,4,6,8,10,-1,-1,-1,12,14,16,18,20,22,-1,24,-1,-1,-1,-1,-1,-1,-1,-1,-1],"split_conditions":[1.5019447E-1,-1.2686935E-1,2.1284212E-1,-1.5493374E-1,3.6842105E-1,1.3967529E-2,4.6986237E-2,-5.1086422E-2,-5.7798564E-1,-8.542755E-1,1.328667E0,-5.3825533E-1,-1.3833524E-1,-2.5273696E-2,-5.3940285E-2,-1.1430424E-2,6.9488245E-3,5.3111967E-2,-5.339445E-3,-2.7541567E-2,2.344005E-2,-4.0007185E-2,3.964184E-2,-3.921848E-2,8.319633E-3],"split_indices":[6,6,6,6,0,0,0,0,0,4,2,4,6,6,0,6,0,0,0,0,0,0,0,0,0],"split_type":[0,0,0,0,0,0,0,0,0,0,0,0,0,0,0,0,0,0,0,0,0,0,0,0,0],"sum_hessian":[2.6851996E2,1.7860458E2,8.991536E1,9.795308E1,8.06515E1,4.518176E0,8.539719E1,1.6230867E1,8.172221E1,6.217471E1,1.8476791E1,1.7733297E1,6.3988914E1,8.663661E0,5.3511047E1,1.5213431E1,3.2633605E0,1.2736005E1,4.9972925E0,3.5359676E1,2.8629238E1,5.602813E0,3.0608487E0,1.0380582E1,4.83285E0],"tree_param":{"num_deleted":"0","num_feature":"9","num_nodes":"25","size_leaf_vector":"1"}},{"base_weights":[1.9417832E-2,-4.0749845E-1,8.7131786E-1,-7.376773E-2,-8.0623746E-1,5.976923E-1,5.2056253E-2,-4.69659E-2,1.2811147E-1,-9.499687E-1,-2.6425678E-1,7.523398E-1,-0E0,-4.884078E-2,2.538058E-1,-1.3649637E-1,-5.3364437E-2,-4.9455494E-1,1.2859683E-2,9.1434747E-1,-0E0,2.5463527E-2,-2.6056359E-2,5.5891234E-2,-4.7646157E-4,-3.7408974E-2,2.7227953E-2,-4.2059176E-2,7.99205E-3,2.6295779E-3,5.021442E-2],"categories":[],"categories_nodes":[],"categories_segments":[],"categories_sizes":[],"default_left":[0,0,0,0,0,0,0,0,0,0,0,0,0,0,0,0,0,0,0,0,0,0,0,0,0,0,0,0,0,0,0],"id":37,"left_children":[1,3,5,7,9,11,-1,-1,13,15,17,19,21,-1,23,25,-1,27,-1,29,-1,-1,-1,-1,-1,-1,-1,-1,-1,-1,-1],"loss_changes":[9.725713E1,2.3046589E1,2.0916367E0,1.8023989E1,5.1180305E0,3.994238E0,0E0,0E0,1.1513531E1,4.99358E0,2.8055797E0,3.9518986E0,3.1161203E0,0E0,1.7767086E1,5.3346934E0,0E0,4.1027646E0,0E0,1.4297447E0,0E0,0E0,0E0,0E0,0E0,0E0,0E0,0E0,0E0,0E0,0E0],"parents":[2147483647,0,0,1,1,2,2,3,3,4,4,5,5,8,8,9,9,10,10,11,11,12,12,14,14,15,15,17,17,19,19],"right_children":[2,4,6,8,10,12,-1,-1,14,16,18,20,22,-1,24,26,-1,28,-1,30,-1,-1,-1,-1,-1,-1,-1,-1,-1,-1,-1],"split_conditions":[1.5019447E-1,-1.2686935E-1,6.639801E-1,-1.5421349E-1,3.6842105E-1,3.386704E-1,5.2056253E-2,-4.69659E-2,-7.1428573E-1,-8.542755E-1,-1.1430424E-2,-3.6972147E-1,-9.487385E-1,-4.884078E-2,-5.3825533E-1,-2.5273696E-2,-5.3364437E-2,1.9423868E-1,1.2859683E-2,2.3789254E-1,-0E0,2.5463527E-2,-2.6056359E-2,5.5891234E-2,-4.7646157E-4,-3.7408974E-2,2.7227953E-2,-4.2059176E-2,7.99205E-3,2.6295779E-3,5.021442E-2],"split_indices":[6,6,6,6,0,6,0,0,4,4,6,4,4,0,4,6,0,4,0,6,0,0,0,0,0,0,0,0,0,0,0],"split_type":[0,0,0,0,0,0,0,0,0,0,0,0,0,0,0,0,0,0,0,0,0,0,0,0,0,0,0,0,0,0,0],"sum_hessian":[2.6282748E2,1.7538995E2,8.743752E1,9.745089E1,7.7939064E1,3.8072327E1,4.9365196E1,1.7517252E1,7.993364E1,5.9683216E1,1.8255852E1,3.0348106E1,7.724219E0,6.3747973E0,7.3558846E1,8.605215E0,5.1078E1,1.3399842E1,4.856009E0,2.4627491E1,5.7206154E0,3.5550997E0,4.169119E0,1.6109972E1,5.744887E1,4.8164268E0,3.7887883E0,8.886123E0,4.513719E0,3.1523523E0,2.1475138E1],"tree_param":{"num_deleted":"0","num_feature":"9","num_nodes":"31","size_leaf_vector":"1"}},{"base_weights":[3.2947414E-2,-2.150546E-1,5.7158184E-1,1.0210665E-1,-4.6945474E-1,2.4532562E-1,7.059671E-1,-3.148769E-1,4.957125E-2,-8.296623E-1,8.7864614E-1,-3.8049653E-1,4.5453813E-2,3.4226012E-1,5.0503977E-2,-1.3009024E-1,-4.6503875E-2,-8.518972E-1,-5.506766E-3,2.7530293E-3,4.907484E-2,-9.420281E-2,-3.9144352E-2,3.3352003E-2,4.1649014E-2,-2.2123296E-2,1.1510978E-2,-2.3665236E-2,-4.6646323E-2,-1.8755028E-2,1.1796809E-2,2.3476511E-2,-1.0788421E-2],"categories":[],"categories_nodes":[],"categories_segments":[],"categories_sizes":[],"default_left":[0,0,0,0,0,0,0,0,0,0,0,0,0,0,0,0,0,0,0,0,0,0,0,0,0,0,0,0,0,0,0,0,0],"id":38,"left_children":[1,3,5,7,9,11,13,15,-1,17,19,21,-1,23,-1,25,-1,27,-1,-1,-1,29,-1,31,-1,-1,-1,-1,-1,-1,-1,-1,-1],"loss_changes":[3.4707165E1,1.4524583E1,2.7773075E0,3.0387882E1,4.960456E1,1.262868E1,4.825754E0,5.498059E0,0E0,6.0489655E-1,1.2029152E0,1.1979206E0,0E0,3.948572E0,0E0,5.4158373E0,0E0,7.528E-1,0E0,0E0,0E0,1.363823E0,0E0,2.5758085E0,0E0,0E0,0E0,0E0,0E0,0E0,0E0,0E0,0E0],"parents":[2147483647,0,0,1,1,2,2,3,3,4,4,5,5,6,6,7,7,9,9,10,10,11,11,13,13,15,15,17,17,21,21,23,23],"right_children":[2,4,6,8,10,12,14,16,-1,18,20,22,-1,24,-1,26,-1,28,-1,-1,-1,30,-1,32,-1,-1,-1,-1,-1,-1,-1,-1,-1],"split_conditions":[3.6842105E-1,-3.6972147E-1,0E0,1.9679487E-1,6.639801E-1,-1.1430424E-2,3.8032988E-1,-5.3825533E-1,4.957125E-2,8.5714287E-1,-7.6901364E-1,3.8822123E-1,4.5453813E-2,1.0091583E-1,5.0503977E-2,3.3462044E-2,-4.6503875E-2,-6.6350174E-1,-5.506766E-3,2.7530293E-3,4.907484E-2,-1.1657696E-2,-3.9144352E-2,3.5231687E-2,4.1649014E-2,-2.2123296E-2,1.1510978E-2,-2.3665236E-2,-4.6646323E-2,-1.8755028E-2,1.1796809E-2,2.3476511E-2,-1.0788421E-2],"split_indices":[0,4,4,6,6,6,6,4,0,4,8,8,0,5,0,5,0,2,0,0,0,2,0,4,0,0,0,0,0,0,0,0,0],"split_type":[0,0,0,0,0,0,0,0,0,0,0,0,0,0,0,0,0,0,0,0,0,0,0,0,0,0,0,0,0,0,0,0,0],"sum_hessian":[2.5464348E2,1.7454938E2,8.00941E1,7.734947E1,9.7199905E1,2.6100325E1,5.3993774E1,5.3155544E1,2.419393E1,7.760435E1,1.9595562E1,1.3485562E1,1.2614762E1,2.7272223E1,2.6721554E1,4.3365566E1,9.789974E0,7.4247116E1,3.3572261E0,3.0560524E0,1.653951E1,1.0047636E1,3.437926E0,1.8672644E1,8.599579E0,2.372688E1,1.9638689E1,1.6589415E1,5.7657703E1,6.099786E0,3.9478505E0,6.874254E0,1.17983885E1],"tree_param":{"num_deleted":"0","num_feature":"9","num_nodes":"33","size_leaf_vector":"1"}},{"base_weights":[-1.31760165E-2,-4.0737006E-1,8.0315423E-1,-6.011705E-1,1.4721699E-1,6.0580623E-1,5.184244E-2,4.016858E-2,-7.4658537E-1,-2.1886165E-1,3.8616562E-1,8.374125E-1,1.9446835E-1,5.1133317E-1,-6.172089E-1,-4.760998E-1,-4.9707245E-2,-5.0837225E-1,2.5532413E-2,5.9380215E-1,-1.5733248E-1,4.880286E-2,1.864959E-1,-3.425826E-1,6.743722E-1,-5.896876E-3,4.119341E-2,-4.1953504E-2,-0E0,-3.464106E-2,1.8969027E-2,-1.0586757E-3,-4.1400604E-2,4.3159064E-2,1.4469491E-3,-1.8920496E-2,1.3425449E-3,-1.2695128E-2,3.0821947E-2,2.532472E-3,-3.777802E-2,-0E0,4.517023E-2],"categories":[],"categories_nodes":[],"categories_segments":[],"categories_sizes":[],"default_left":[0,0,0,0,0,0,0,0,0,0,0,0,0,0,0,0,0,0,0,0,0,0,0,0,0,0,0,0,0,0,0,0,0,0,0,0,0,0,0,0,0,0,0],"id":39,"left_children":[1,3,5,7,9,11,-1,13,15,17,19,21,23,25,27,29,-1,31,-1,33,35,-1,37,39,41,-1,-1,-1,-1,-1,-1,-1,-1,-1,-1,-1,-1,-1,-1,-1,-1,-1,-1],"loss_changes":[7.9574745E1,1.8411411E1,1.6268883E0,1.2091072E1,4.129974E0,3.8759995E0,0E0,8.137706E0,5.202675E0,4.310337E0,3.606556E0,1.7889881E0,6.0972676E0,3.6455402E0,1.2632918E0,1.0681862E1,0E0,1.7746255E0,0E0,2.7924705E0,5.526976E-1,0E0,2.0897322E0,2.190793E0,1.8976116E0,0E0,0E0,0E0,0E0,0E0,0E0,0E0,0E0,0E0,0E0,0E0,0E0,0E0,0E0,0E0,0E0,0E0,0E0],"parents":[2147483647,0,0,1,1,2,2,3,3,4,4,5,5,7,7,8,8,9,9,10,10,11,11,12,12,13,13,14,14,15,15,17,17,19,19,20,20,22,22,23,23,24,24],"right_children":[2,4,6,8,10,12,-1,14,16,18,20,22,24,26,28,30,-1,32,-1,34,36,-1,38,40,42,-1,-1,-1,-1,-1,-1,-1,-1,-1,-1,-1,-1,-1,-1,-1,-1,-1,-1],"split_conditions":[1.5019447E-1,3.6842105E-1,3.3052522E-1,-6.315789E-1,0E0,-4.0415078E-1,5.184244E-2,-1.3374388E-1,-1.2819792E-1,-1.1430424E-2,4.9462017E-1,1.9423868E-1,8.907303E-1,-1.5182224E-1,-2.8125165E-2,-1.355013E-1,-4.9707245E-2,-1.3014261E-1,2.5532413E-2,-1.3014261E-1,-1.5048257E-1,4.880286E-2,1.0637497E0,2.2270079E-1,-3.5347036E-1,-5.896876E-3,4.119341E-2,-4.1953504E-2,-0E0,-3.464106E-2,1.8969027E-2,-1.0586757E-3,-4.1400604E-2,4.3159064E-2,1.4469491E-3,-1.8920496E-2,1.3425449E-3,-1.2695128E-2,3.0821947E-2,2.532472E-3,-3.777802E-2,-0E0,4.517023E-2],"split_indices":[6,0,0,0,4,0,0,6,6,6,4,4,6,6,6,6,0,6,0,6,6,0,6,7,5,0,0,0,0,0,0,0,0,0,0,0,0,0,0,0,0,0,0],"split_type":[0,0,0,0,0,0,0,0,0,0,0,0,0,0,0,0,0,0,0,0,0,0,0,0,0,0,0,0,0,0,0,0,0,0,0,0,0,0,0,0,0,0,0],"sum_hessian":[2.4386736E2,1.6554333E2,7.832403E1,1.23218285E2,4.2325043E1,4.7519444E1,3.0804585E1,2.2406328E1,1.0081196E2,1.5955783E1,2.6369259E1,2.8298569E1,1.9220877E1,1.375359E1,8.652738E0,5.193424E1,4.887772E1,1.2347325E1,3.608458E0,1.961171E1,6.7575493E0,2.187256E1,6.426009E0,8.848785E0,1.037209E1,4.446431E0,9.307158E0,5.5584197E0,3.0943184E0,4.2206646E1,9.727594E0,6.3560715E0,5.991254E0,1.1964504E1,7.647205E0,3.3464255E0,3.4111238E0,3.0044518E0,3.4215574E0,4.811413E0,4.0373726E0,3.1528804E0,7.21921E0],"tree_param":{"num_deleted":"0","num_feature":"9","num_nodes":"43","size_leaf_vector":"1"}},{"base_weights":[-1.8277105E-2,-3.8048264E-1,8.2757825E-1,-2.7987441E-2,-7.306404E-1,5.6462747E-1,9.609625E-1,-8.792195E-1,1.9539249E-1,-8.848337E-1,-2.1837838E-1,7.9751456E-1,-1.9807158E-1,5.078852E-2,5.9152935E-3,-4.823612E-2,-8.814308E-3,6.8985265E-1,-3.4251332E-3,-1.0614566E0,-5.762784E-1,-5.682176E-1,3.852076E-1,4.7768816E-2,3.3807567E-1,-0E0,-1.568905E-2,-0E0,4.2018484E-2,-2.206178E-2,3.0545462E-2,-9.060146E-3,-5.5886585E-2,-9.165491E-3,-4.1941468E-2,7.180917E-4,-3.8870286E-2,1.500005E-3,2.7204111E-2,-9.313162E-4,3.0626789E-2],"categories":[],"categories_nodes":[],"categories_segments":[],"categories_sizes":[],"default_left":[0,0,0,0,0,0,0,0,0,0,0,0,0,0,0,0,0,0,0,0,0,0,0,0,0,0,0,0,0,0,0,0,0,0,0,0,0,0,0,0,0],"id":40,"left_children":[1,3,5,7,9,11,13,15,17,19,21,23,25,-1,-1,-1,-1,27,29,31,33,35,37,-1,39,-1,-1,-1,-1,-1,-1,-1,-1,-1,-1,-1,-1,-1,-1,-1,-1],"loss_changes":[7.4963615E1,2.0831175E1,7.186966E-1,1.7531183E1,5.821884E0,6.075589E0,1.2450752E0,2.4602127E-1,7.361951E0,1.4661255E0,5.429457E0,4.8050213E-1,1.7195988E-1,0E0,0E0,0E0,0E0,2.0069094E0,1.4482149E1,8.047981E-1,2.1570978E0,2.356638E0,1.9851804E-1,0E0,1.3142011E0,0E0,0E0,0E0,0E0,0E0,0E0,0E0,0E0,0E0,0E0,0E0,0E0,0E0,0E0,0E0,0E0],"parents":[2147483647,0,0,1,1,2,2,3,3,4,4,5,5,6,6,7,7,8,8,9,9,10,10,11,11,12,12,17,17,18,18,19,19,20,20,21,21,22,22,24,24],"right_children":[2,4,6,8,10,12,14,16,18,20,22,24,26,-1,-1,-1,-1,28,30,32,34,36,38,-1,40,-1,-1,-1,-1,-1,-1,-1,-1,-1,-1,-1,-1,-1,-1,-1,-1],"split_conditions":[2.2580668E-1,-1.3014261E-1,6.639801E-1,-1.5421349E-1,-5.1354077E-3,3.5133246E-1,1.4660689E0,3.1578946E-1,-4.0415078E-1,3.7037037E-2,3.627626E-1,-4.0415078E-1,-1.9981381E-1,5.078852E-2,5.9152935E-3,-4.823612E-2,-8.814308E-3,-6.0720146E-1,-1.3833524E-1,-8.227758E-1,-8.900976E-2,1.5802905E-2,1.8624662E-1,4.7768816E-2,2.780827E-1,-0E0,-1.568905E-2,-0E0,4.2018484E-2,-2.206178E-2,3.0545462E-2,-9.060146E-3,-5.5886585E-2,-9.165491E-3,-4.1941468E-2,7.180917E-4,-3.8870286E-2,1.500005E-3,2.7204111E-2,-9.313162E-4,3.0626789E-2],"split_indices":[6,6,6,6,6,6,6,0,0,5,0,0,0,0,0,0,0,8,6,8,6,6,1,0,6,0,0,0,0,0,0,0,0,0,0,0,0,0,0,0,0],"split_type":[0,0,0,0,0,0,0,0,0,0,0,0,0,0,0,0,0,0,0,0,0,0,0,0,0,0,0,0,0,0,0,0,0,0,0,0,0,0,0,0,0],"sum_hessian":[2.4135463E2,1.7017508E2,7.117956E1,8.6592415E1,8.358266E1,2.8738958E1,4.2440598E1,1.724467E1,6.934774E1,6.2376396E1,2.1206263E1,2.2448631E1,6.2903285E0,3.890585E1,3.534745E0,1.4076312E1,3.1683586E0,1.9192139E1,5.0155605E1,3.5534916E1,2.6841478E1,1.402369E1,7.1825724E0,1.4291092E1,8.157539E0,3.2403946E0,3.049934E0,4.0697713E0,1.5122368E1,3.0089499E1,2.0066107E1,3.1762915E0,3.2358627E1,1.2873725E1,1.3967752E1,3.5657463E0,1.0457945E1,3.9271507E0,3.2554214E0,3.5657825E0,4.591757E0],"tree_param":{"num_deleted":"0","num_feature":"9","num_nodes":"41","size_leaf_vector":"1"}},{"base_weights":[-2.6251383E-2,-3.8530907E-1,7.8197616E-1,-5.0968125E-2,-7.443432E-1,4.90028E-1,9.5379496E-1,-4.5814227E-2,1.299629E-1,-7.820363E-3,-8.776699E-1,4.4671003E-2,-9.690556E-2,5.0525934E-2,2.976502E-3,6.856652E-1,-4.9289405E-2,-4.300959E-2,7.7523756E-1,-9.3906516E-1,3.3985977E-3,3.0126513E-4,4.0032607E-2,-2.2580044E-2,2.5446761E-2,4.8687752E-2,9.589749E-3,-3.038655E-2,-5.4709762E-2],"categories":[],"categories_nodes":[],"categories_segments":[],"categories_sizes":[],"default_left":[0,0,0,0,0,0,0,0,0,0,0,0,0,0,0,0,0,0,0,0,0,0,0,0,0,0,0,0,0],"id":41,"left_children":[1,3,5,7,9,11,13,-1,15,17,19,-1,-1,-1,-1,21,23,-1,25,27,-1,-1,-1,-1,-1,-1,-1,-1,-1],"loss_changes":[7.034792E1,1.9771097E1,2.073841E0,1.4752615E1,7.443901E0,3.5013336E1,1.5575943E0,0E0,7.9434214E0,1.1337523E1,4.4838066E0,0E0,0E0,0E0,0E0,1.0968027E0,1.3580711E1,0E0,3.1057358E-2,1.1109161E0,0E0,0E0,0E0,0E0,0E0,0E0,0E0,0E0,0E0],"parents":[2147483647,0,0,1,1,2,2,3,3,4,4,5,5,6,6,8,8,9,9,10,10,15,15,16,16,18,18,19,19],"right_children":[2,4,6,8,10,12,14,-1,16,18,20,-1,-1,-1,-1,22,24,-1,26,28,-1,-1,-1,-1,-1,-1,-1,-1,-1],"split_conditions":[2.1284212E-1,-1.295376E-1,6.639801E-1,-1.5493374E-1,-8.542755E-1,-8.7231435E-2,1.4660689E0,-4.5814227E-2,-5.0440294E-1,-2.5273696E-2,1.5019447E-1,4.4671003E-2,-9.690556E-2,5.0525934E-2,2.976502E-3,-6.6350174E-1,-1.3833524E-1,-4.300959E-2,7.800346E-3,-8.793575E-2,3.3985977E-3,3.0126513E-4,4.0032607E-2,-2.2580044E-2,2.5446761E-2,4.8687752E-2,9.589749E-3,-3.038655E-2,-5.4709762E-2],"split_indices":[6,6,6,6,4,4,6,0,0,6,6,0,0,0,0,2,6,0,6,6,0,0,0,0,0,0,0,0,0],"split_type":[0,0,0,0,0,0,0,0,0,0,0,0,0,0,0,0,0,0,0,0,0,0,0,0,0,0,0,0,0],"sum_hessian":[2.3901852E2,1.6664923E2,7.2369286E1,8.81958E1,7.845343E1,3.0744099E1,4.162519E1,1.4324194E1,7.3871605E1,1.2924335E1,6.55291E1,2.7624767E1,3.1193323E0,3.837211E1,3.25308E0,1.7319206E1,5.6552402E1,6.399686E0,6.5246487E0,6.2043602E1,3.4854958E0,3.4399886E0,1.3879219E1,3.3608513E1,2.2943888E1,3.2305138E0,3.2941346E0,2.394945E1,3.8094154E1],"tree_param":{"num_deleted":"0","num_feature":"9","num_nodes":"29","size_leaf_vector":"1"}},{"base_weights":[-8.271995E-3,-2.3261358E-1,4.7651318E-1,-5.5642825E-1,6.67873E-1,9.7664304E-2,4.8293445E-2,-5.9822418E-2,-8.253011E-1,8.8661826E-1,2.11085E-1,-2.3959002E-1,2.908639E-1,5.9191394E-1,-6.9486374E-1,-6.3359934E-1,-5.0395466E-2,4.9201727E-2,4.671076E-3,-6.671563E-2,4.132765E-2,8.016994E-3,-4.849308E-1,5.0024533E-1,-4.3016214E-2,-4.2343467E-2,5.6563493E-2,-4.9869712E-2,2.5339339E-2,-3.8959574E-2,1.3804904E-2,-3.6126476E-2,-3.7955355E-3,4.4392683E-2,3.3305374E-3],"categories":[],"categories_nodes":[],"categories_segments":[],"categories_sizes":[],"default_left":[0,0,0,0,0,0,0,0,0,0,0,0,0,0,0,0,0,0,0,0,0,0,0,0,0,0,0,0,0,0,0,0,0,0,0],"id":42,"left_children":[1,3,5,7,9,11,-1,13,15,17,19,21,23,25,27,29,-1,-1,-1,-1,-1,-1,31,33,-1,-1,-1,-1,-1,-1,-1,-1,-1,-1,-1],"loss_changes":[2.5974375E1,4.8710773E1,1.32242565E1,1.5833202E1,3.4793682E0,3.1098974E0,0E0,1.9864645E1,6.587486E-1,1.4740524E0,1.8722761E1,1.9480846E0,8.051906E0,2.0167336E1,1.01804495E1,6.66028E0,0E0,0E0,0E0,0E0,0E0,0E0,6.154671E-1,4.027887E0,0E0,0E0,0E0,0E0,0E0,0E0,0E0,0E0,0E0,0E0,0E0],"parents":[2147483647,0,0,1,1,2,2,3,3,4,4,5,5,7,7,8,8,9,9,10,10,11,11,12,12,13,13,14,14,15,15,22,22,23,23],"right_children":[2,4,6,8,10,12,-1,14,16,18,20,22,24,26,28,30,-1,-1,-1,-1,-1,-1,32,34,-1,-1,-1,-1,-1,-1,-1,-1,-1,-1,-1],"split_conditions":[3.6842105E-1,2.1284212E-1,1.0321806E-1,-5.3825533E-1,1.9423868E-1,0E0,4.8293445E-2,-1.2686935E-1,-1.295376E-1,-5.020364E-2,8.907303E-1,-2.1511717E-1,-8.793575E-2,-7.425462E-1,-2.5273696E-2,-1.3508356E-1,-5.0395466E-2,4.9201727E-2,4.671076E-3,-6.671563E-2,4.132765E-2,8.016994E-3,-2.7905598E-1,3.489742E-1,-4.3016214E-2,-4.2343467E-2,5.6563493E-2,-4.9869712E-2,2.5339339E-2,-3.8959574E-2,1.3804904E-2,-3.6126476E-2,-3.7955355E-3,4.4392683E-2,3.3305374E-3],"split_indices":[0,6,6,4,4,4,0,6,6,0,6,8,6,4,6,6,0,0,0,0,0,0,7,4,0,0,0,0,0,0,0,0,0,0,0],"split_type":[0,0,0,0,0,0,0,0,0,0,0,0,0,0,0,0,0,0,0,0,0,0,0,0,0,0,0,0,0,0,0,0,0,0,0],"sum_hessian":[2.3591136E2,1.62694E2,7.3217354E1,1.2063361E2,4.2060387E1,4.319647E1,3.0020887E1,4.3884296E1,7.674932E1,2.642804E1,1.5632348E1,1.4615332E1,2.8581139E1,2.1335928E1,2.254837E1,4.3139305E1,3.3610016E1,2.2547346E1,3.8806934E0,3.5557604E0,1.2076588E1,5.04554E0,9.569791E0,2.5507078E1,3.0740607E0,5.2537417E0,1.6082188E1,1.8617289E1,3.9310808E0,3.7908768E1,5.230537E0,4.310451E0,5.2593403E0,1.1753298E1,1.3753779E1],"tree_param":{"num_deleted":"0","num_feature":"9","num_nodes":"35","size_leaf_vector":"1"}},{"base_weights":[-0E0,-3.347277E-1,7.9153603E-1,-3.769827E-2,-6.9963837E-1,5.322481E-1,9.3440306E-1,1.4934802E-1,-6.1735755E-1,4.0527657E-2,-8.66063E-1,9.2914593E-1,-5.663094E-2,1.306804E-2,4.9398787E-2,-4.9705874E-2,3.0958167E-1,-5.5924125E-2,2.956602E-2,-4.0400453E-2,4.0676195E-2,-5.0505448E-2,-3.402336E-1,5.8418703E-3,5.0927974E-2,5.8442146E-2,2.8440387E-3,4.2164824E-3,-3.3200797E-2],"categories":[],"categories_nodes":[],"categories_segments":[],"categories_sizes":[],"default_left":[0,0,0,0,0,0,0,0,0,0,0,0,0,0,0,0,0,0,0,0,0,0,0,0,0,0,0,0,0],"id":43,"left_children":[1,3,5,7,9,11,13,15,17,19,21,23,-1,-1,-1,-1,25,-1,-1,-1,-1,-1,27,-1,-1,-1,-1,-1,-1],"loss_changes":[6.2605488E1,1.7569397E1,8.740082E-1,1.0650478E1,9.550598E0,2.2384014E1,3.5155487E-1,1.3521449E1,1.6162323E1,1.1072292E1,3.2381134E0,1.1006775E0,0E0,0E0,0E0,0E0,1.3439346E1,0E0,0E0,0E0,0E0,0E0,2.714469E0,0E0,0E0,0E0,0E0,0E0,0E0],"parents":[2147483647,0,0,1,1,2,2,3,3,4,4,5,5,6,6,7,7,8,8,9,9,10,10,11,11,16,16,22,22],"right_children":[2,4,6,8,10,12,14,16,18,20,22,24,-1,-1,-1,-1,26,-1,-1,-1,-1,-1,28,-1,-1,-1,-1,-1,-1],"split_conditions":[1.9679487E-1,-1.2686935E-1,6.639801E-1,4.9462017E-1,-8.542755E-1,-3.6972147E-1,-6.7615324E-1,-7.1428573E-1,8.5714287E-1,-2.9589767E-2,3.6842105E-1,-8.542755E-1,-5.663094E-2,1.306804E-2,4.9398787E-2,-4.9705874E-2,-6.926105E-1,-5.5924125E-2,2.956602E-2,-4.0400453E-2,4.0676195E-2,-5.0505448E-2,-8.564535E-2,5.8418703E-3,5.0927974E-2,5.8442146E-2,2.8440387E-3,4.2164824E-3,-3.3200797E-2],"split_indices":[6,6,6,4,4,4,1,4,4,6,0,4,0,0,0,0,4,0,0,0,0,0,6,0,0,0,0,0,0],"split_type":[0,0,0,0,0,0,0,0,0,0,0,0,0,0,0,0,0,0,0,0,0,0,0,0,0,0,0,0,0],"sum_hessian":[2.322248E2,1.6398343E2,6.8241356E1,9.237168E1,7.161175E1,2.8843779E1,3.9397575E1,7.030694E1,2.206474E1,1.2872133E1,5.8739616E1,2.4247429E1,4.5963497E0,4.4597216E0,3.4937855E1,6.978428E0,6.3328514E1,1.5995734E1,6.0690045E0,5.784702E0,7.0874314E0,4.391632E1,1.48232975E1,3.416295E0,2.0831133E1,1.2294384E1,5.103413E1,6.3853216E0,8.437975E0],"tree_param":{"num_deleted":"0","num_feature":"9","num_nodes":"29","size_leaf_vector":"1"}},{"base_weights":[4.461987E-3,-3.4071827E-1,7.407135E-1,-5.7861596E-1,2.4415766E-1,5.3451854E-1,4.905433E-2,-4.8019562E-2,-4.0174823E-2,-1.2174941E-1,4.9061677E-1,8.5170907E-1,1.5659775E-1,3.9184767E-1,-3.66276E-2,2.0691916E-1,-3.8192306E-2,5.946051E-1,1.1369566E-3,4.7575064E-2,1.2144298E-2,4.9272612E-1,-1.0873623E-1,2.6842967E-2,-0E0,-3.5203104E-3,3.631534E-2,1.307893E-2,3.7999935E-2,-0E0,3.7634186E-2,1.6248515E-2,-2.016123E-2],"categories":[],"categories_nodes":[],"categories_segments":[],"categories_sizes":[],"default_left":[0,0,0,0,0,0,0,0,0,0,0,0,0,0,0,0,0,0,0,0,0,0,0,0,0,0,0,0,0,0,0,0,0],"id":44,"left_children":[1,3,5,7,9,11,-1,13,-1,15,17,19,21,23,-1,25,-1,27,-1,-1,-1,29,31,-1,-1,-1,-1,-1,-1,-1,-1,-1,-1],"loss_changes":[5.7143803E1,2.1613287E1,1.7608528E0,1.2541691E1,4.3419943E0,4.5342712E0,0E0,1.1382759E1,0E0,4.5636535E0,1.0251379E0,3.3140373E-1,2.3829794E0,1.3293655E0,0E0,2.3745475E0,0E0,2.9953623E-1,0E0,0E0,0E0,1.7925515E0,2.0720131E0,0E0,0E0,0E0,0E0,0E0,0E0,0E0,0E0,0E0,0E0],"parents":[2147483647,0,0,1,1,2,2,3,3,4,4,5,5,7,7,9,9,10,10,11,11,12,12,13,13,15,15,17,17,21,21,22,22],"right_children":[2,4,6,8,10,12,-1,14,-1,16,18,20,22,24,-1,26,-1,28,-1,-1,-1,30,32,-1,-1,-1,-1,-1,-1,-1,-1,-1,-1],"split_conditions":[1.5019447E-1,3.6842105E-1,3.3052522E-1,-5.0440294E-1,0E0,-5.7798564E-1,4.905433E-2,-5.3825533E-1,-4.0174823E-2,3.8822123E-1,4.9462017E-1,6.086956E-1,-4.347826E-2,4.2285398E-1,-3.66276E-2,